digraph Tree {
node [shape=box] ;
0 [label="X[7] <= 0.992\ngini = 0.675\nsamples = 3918\nvalue = [14, 140, 1177, 1753, 704, 127, 3]"] ;
1 [label="X[3] <= 2.25\ngini = 0.66\nsamples = 1270\nvalue = [2, 32, 152, 583, 423, 76, 2]"] ;
0 -> 1 [labeldistance=2.5, labelangle=45, headlabel="True"] ;
2 [label="X[7] <= 0.992\ngini = 0.656\nsamples = 763\nvalue = [0, 22, 133, 378, 195, 33, 2]"] ;
1 -> 2 ;
3 [label="X[5] <= 9.5\ngini = 0.638\nsamples = 543\nvalue = [0, 14, 60, 272, 168, 27, 2]"] ;
2 -> 3 ;
4 [label="X[0] <= 6.45\ngini = 0.66\nsamples = 30\nvalue = [0, 11, 11, 8, 0, 0, 0]"] ;
3 -> 4 ;
5 [label="X[1] <= 0.237\ngini = 0.497\nsamples = 13\nvalue = [0, 6, 7, 0, 0, 0, 0]"] ;
4 -> 5 ;
6 [label="gini = 0.0\nsamples = 4\nvalue = [0, 0, 4, 0, 0, 0, 0]"] ;
5 -> 6 ;
7 [label="X[9] <= 0.345\ngini = 0.444\nsamples = 9\nvalue = [0, 6, 3, 0, 0, 0, 0]"] ;
5 -> 7 ;
8 [label="X[2] <= 0.23\ngini = 0.48\nsamples = 5\nvalue = [0, 2, 3, 0, 0, 0, 0]"] ;
7 -> 8 ;
9 [label="gini = 0.0\nsamples = 2\nvalue = [0, 0, 2, 0, 0, 0, 0]"] ;
8 -> 9 ;
10 [label="X[0] <= 5.7\ngini = 0.444\nsamples = 3\nvalue = [0, 2, 1, 0, 0, 0, 0]"] ;
8 -> 10 ;
11 [label="gini = 0.0\nsamples = 1\nvalue = [0, 0, 1, 0, 0, 0, 0]"] ;
10 -> 11 ;
12 [label="gini = 0.0\nsamples = 2\nvalue = [0, 2, 0, 0, 0, 0, 0]"] ;
10 -> 12 ;
13 [label="gini = 0.0\nsamples = 4\nvalue = [0, 4, 0, 0, 0, 0, 0]"] ;
7 -> 13 ;
14 [label="X[8] <= 3.035\ngini = 0.637\nsamples = 17\nvalue = [0, 5, 4, 8, 0, 0, 0]"] ;
4 -> 14 ;
15 [label="X[9] <= 0.445\ngini = 0.375\nsamples = 4\nvalue = [0, 3, 1, 0, 0, 0, 0]"] ;
14 -> 15 ;
16 [label="gini = 0.0\nsamples = 3\nvalue = [0, 3, 0, 0, 0, 0, 0]"] ;
15 -> 16 ;
17 [label="gini = 0.0\nsamples = 1\nvalue = [0, 0, 1, 0, 0, 0, 0]"] ;
15 -> 17 ;
18 [label="X[7] <= 0.991\ngini = 0.544\nsamples = 13\nvalue = [0, 2, 3, 8, 0, 0, 0]"] ;
14 -> 18 ;
19 [label="X[4] <= 0.018\ngini = 0.219\nsamples = 8\nvalue = [0, 0, 1, 7, 0, 0, 0]"] ;
18 -> 19 ;
20 [label="gini = 0.0\nsamples = 1\nvalue = [0, 0, 1, 0, 0, 0, 0]"] ;
19 -> 20 ;
21 [label="gini = 0.0\nsamples = 7\nvalue = [0, 0, 0, 7, 0, 0, 0]"] ;
19 -> 21 ;
22 [label="X[7] <= 0.991\ngini = 0.64\nsamples = 5\nvalue = [0, 2, 2, 1, 0, 0, 0]"] ;
18 -> 22 ;
23 [label="gini = 0.0\nsamples = 2\nvalue = [0, 0, 2, 0, 0, 0, 0]"] ;
22 -> 23 ;
24 [label="X[9] <= 0.6\ngini = 0.444\nsamples = 3\nvalue = [0, 2, 0, 1, 0, 0, 0]"] ;
22 -> 24 ;
25 [label="gini = 0.0\nsamples = 2\nvalue = [0, 2, 0, 0, 0, 0, 0]"] ;
24 -> 25 ;
26 [label="gini = 0.0\nsamples = 1\nvalue = [0, 0, 0, 1, 0, 0, 0]"] ;
24 -> 26 ;
27 [label="X[5] <= 38.5\ngini = 0.616\nsamples = 513\nvalue = [0, 3, 49, 264, 168, 27, 2]"] ;
3 -> 27 ;
28 [label="X[8] <= 3.295\ngini = 0.587\nsamples = 382\nvalue = [0, 3, 35, 216, 110, 16, 2]"] ;
27 -> 28 ;
29 [label="X[6] <= 130.5\ngini = 0.562\nsamples = 283\nvalue = [0, 2, 31, 171, 69, 9, 1]"] ;
28 -> 29 ;
30 [label="X[0] <= 6.35\ngini = 0.536\nsamples = 243\nvalue = [0, 2, 17, 151, 65, 8, 0]"] ;
29 -> 30 ;
31 [label="X[0] <= 5.65\ngini = 0.365\nsamples = 74\nvalue = [0, 0, 2, 57, 15, 0, 0]"] ;
30 -> 31 ;
32 [label="X[8] <= 3.265\ngini = 0.5\nsamples = 10\nvalue = [0, 0, 0, 5, 5, 0, 0]"] ;
31 -> 32 ;
33 [label="X[2] <= 0.325\ngini = 0.408\nsamples = 7\nvalue = [0, 0, 0, 2, 5, 0, 0]"] ;
32 -> 33 ;
34 [label="gini = 0.0\nsamples = 4\nvalue = [0, 0, 0, 0, 4, 0, 0]"] ;
33 -> 34 ;
35 [label="X[0] <= 5.55\ngini = 0.444\nsamples = 3\nvalue = [0, 0, 0, 2, 1, 0, 0]"] ;
33 -> 35 ;
36 [label="gini = 0.0\nsamples = 2\nvalue = [0, 0, 0, 2, 0, 0, 0]"] ;
35 -> 36 ;
37 [label="gini = 0.0\nsamples = 1\nvalue = [0, 0, 0, 0, 1, 0, 0]"] ;
35 -> 37 ;
38 [label="gini = 0.0\nsamples = 3\nvalue = [0, 0, 0, 3, 0, 0, 0]"] ;
32 -> 38 ;
39 [label="X[6] <= 58.5\ngini = 0.314\nsamples = 64\nvalue = [0, 0, 2, 52, 10, 0, 0]"] ;
31 -> 39 ;
40 [label="gini = 0.0\nsamples = 1\nvalue = [0, 0, 1, 0, 0, 0, 0]"] ;
39 -> 40 ;
41 [label="X[3] <= 1.05\ngini = 0.293\nsamples = 63\nvalue = [0, 0, 1, 52, 10, 0, 0]"] ;
39 -> 41 ;
42 [label="X[6] <= 93.5\ngini = 0.5\nsamples = 6\nvalue = [0, 0, 0, 3, 3, 0, 0]"] ;
41 -> 42 ;
43 [label="X[6] <= 74.5\ngini = 0.375\nsamples = 4\nvalue = [0, 0, 0, 1, 3, 0, 0]"] ;
42 -> 43 ;
44 [label="gini = 0.0\nsamples = 1\nvalue = [0, 0, 0, 1, 0, 0, 0]"] ;
43 -> 44 ;
45 [label="gini = 0.0\nsamples = 3\nvalue = [0, 0, 0, 0, 3, 0, 0]"] ;
43 -> 45 ;
46 [label="gini = 0.0\nsamples = 2\nvalue = [0, 0, 0, 2, 0, 0, 0]"] ;
42 -> 46 ;
47 [label="X[6] <= 129.0\ngini = 0.246\nsamples = 57\nvalue = [0, 0, 1, 49, 7, 0, 0]"] ;
41 -> 47 ;
48 [label="X[4] <= 0.033\ngini = 0.223\nsamples = 56\nvalue = [0, 0, 1, 49, 6, 0, 0]"] ;
47 -> 48 ;
49 [label="X[4] <= 0.03\ngini = 0.426\nsamples = 18\nvalue = [0, 0, 1, 13, 4, 0, 0]"] ;
48 -> 49 ;
50 [label="X[1] <= 0.285\ngini = 0.272\nsamples = 13\nvalue = [0, 0, 1, 11, 1, 0, 0]"] ;
49 -> 50 ;
51 [label="gini = 0.0\nsamples = 8\nvalue = [0, 0, 0, 8, 0, 0, 0]"] ;
50 -> 51 ;
52 [label="X[1] <= 0.345\ngini = 0.56\nsamples = 5\nvalue = [0, 0, 1, 3, 1, 0, 0]"] ;
50 -> 52 ;
53 [label="X[5] <= 18.5\ngini = 0.5\nsamples = 2\nvalue = [0, 0, 1, 0, 1, 0, 0]"] ;
52 -> 53 ;
54 [label="gini = 0.0\nsamples = 1\nvalue = [0, 0, 0, 0, 1, 0, 0]"] ;
53 -> 54 ;
55 [label="gini = 0.0\nsamples = 1\nvalue = [0, 0, 1, 0, 0, 0, 0]"] ;
53 -> 55 ;
56 [label="gini = 0.0\nsamples = 3\nvalue = [0, 0, 0, 3, 0, 0, 0]"] ;
52 -> 56 ;
57 [label="X[2] <= 0.24\ngini = 0.48\nsamples = 5\nvalue = [0, 0, 0, 2, 3, 0, 0]"] ;
49 -> 57 ;
58 [label="gini = 0.0\nsamples = 2\nvalue = [0, 0, 0, 2, 0, 0, 0]"] ;
57 -> 58 ;
59 [label="gini = 0.0\nsamples = 3\nvalue = [0, 0, 0, 0, 3, 0, 0]"] ;
57 -> 59 ;
60 [label="X[7] <= 0.989\ngini = 0.1\nsamples = 38\nvalue = [0, 0, 0, 36, 2, 0, 0]"] ;
48 -> 60 ;
61 [label="X[9] <= 0.445\ngini = 0.375\nsamples = 8\nvalue = [0, 0, 0, 6, 2, 0, 0]"] ;
60 -> 61 ;
62 [label="gini = 0.0\nsamples = 5\nvalue = [0, 0, 0, 5, 0, 0, 0]"] ;
61 -> 62 ;
63 [label="X[4] <= 0.035\ngini = 0.444\nsamples = 3\nvalue = [0, 0, 0, 1, 2, 0, 0]"] ;
61 -> 63 ;
64 [label="gini = 0.0\nsamples = 1\nvalue = [0, 0, 0, 1, 0, 0, 0]"] ;
63 -> 64 ;
65 [label="gini = 0.0\nsamples = 2\nvalue = [0, 0, 0, 0, 2, 0, 0]"] ;
63 -> 65 ;
66 [label="gini = 0.0\nsamples = 30\nvalue = [0, 0, 0, 30, 0, 0, 0]"] ;
60 -> 66 ;
67 [label="gini = 0.0\nsamples = 1\nvalue = [0, 0, 0, 0, 1, 0, 0]"] ;
47 -> 67 ;
68 [label="X[9] <= 0.67\ngini = 0.593\nsamples = 169\nvalue = [0, 2, 15, 94, 50, 8, 0]"] ;
30 -> 68 ;
69 [label="X[1] <= 0.365\ngini = 0.586\nsamples = 158\nvalue = [0, 2, 15, 91, 42, 8, 0]"] ;
68 -> 69 ;
70 [label="X[0] <= 8.5\ngini = 0.559\nsamples = 150\nvalue = [0, 1, 14, 90, 40, 5, 0]"] ;
69 -> 70 ;
71 [label="X[3] <= 1.35\ngini = 0.547\nsamples = 146\nvalue = [0, 1, 13, 90, 37, 5, 0]"] ;
70 -> 71 ;
72 [label="X[1] <= 0.285\ngini = 0.478\nsamples = 57\nvalue = [0, 1, 7, 40, 6, 3, 0]"] ;
71 -> 72 ;
73 [label="X[2] <= 0.465\ngini = 0.385\nsamples = 48\nvalue = [0, 1, 3, 37, 6, 1, 0]"] ;
72 -> 73 ;
74 [label="X[7] <= 0.989\ngini = 0.327\nsamples = 43\nvalue = [0, 1, 3, 35, 3, 1, 0]"] ;
73 -> 74 ;
75 [label="gini = 0.0\nsamples = 1\nvalue = [0, 0, 0, 0, 0, 1, 0]"] ;
74 -> 75 ;
76 [label="X[5] <= 10.5\ngini = 0.295\nsamples = 42\nvalue = [0, 1, 3, 35, 3, 0, 0]"] ;
74 -> 76 ;
77 [label="gini = 0.0\nsamples = 1\nvalue = [0, 0, 1, 0, 0, 0, 0]"] ;
76 -> 77 ;
78 [label="X[4] <= 0.025\ngini = 0.263\nsamples = 41\nvalue = [0, 1, 2, 35, 3, 0, 0]"] ;
76 -> 78 ;
79 [label="gini = 0.0\nsamples = 1\nvalue = [0, 0, 1, 0, 0, 0, 0]"] ;
78 -> 79 ;
80 [label="X[0] <= 6.85\ngini = 0.228\nsamples = 40\nvalue = [0, 1, 1, 35, 3, 0, 0]"] ;
78 -> 80 ;
81 [label="X[8] <= 3.155\ngini = 0.459\nsamples = 14\nvalue = [0, 1, 1, 10, 2, 0, 0]"] ;
80 -> 81 ;
82 [label="X[8] <= 3.05\ngini = 0.694\nsamples = 7\nvalue = [0, 1, 1, 3, 2, 0, 0]"] ;
81 -> 82 ;
83 [label="gini = 0.0\nsamples = 3\nvalue = [0, 0, 0, 3, 0, 0, 0]"] ;
82 -> 83 ;
84 [label="X[1] <= 0.195\ngini = 0.625\nsamples = 4\nvalue = [0, 1, 1, 0, 2, 0, 0]"] ;
82 -> 84 ;
85 [label="gini = 0.0\nsamples = 2\nvalue = [0, 0, 0, 0, 2, 0, 0]"] ;
84 -> 85 ;
86 [label="X[3] <= 1.25\ngini = 0.5\nsamples = 2\nvalue = [0, 1, 1, 0, 0, 0, 0]"] ;
84 -> 86 ;
87 [label="gini = 0.0\nsamples = 1\nvalue = [0, 1, 0, 0, 0, 0, 0]"] ;
86 -> 87 ;
88 [label="gini = 0.0\nsamples = 1\nvalue = [0, 0, 1, 0, 0, 0, 0]"] ;
86 -> 88 ;
89 [label="gini = 0.0\nsamples = 7\nvalue = [0, 0, 0, 7, 0, 0, 0]"] ;
81 -> 89 ;
90 [label="X[5] <= 14.5\ngini = 0.074\nsamples = 26\nvalue = [0, 0, 0, 25, 1, 0, 0]"] ;
80 -> 90 ;
91 [label="X[3] <= 1.15\ngini = 0.444\nsamples = 3\nvalue = [0, 0, 0, 2, 1, 0, 0]"] ;
90 -> 91 ;
92 [label="gini = 0.0\nsamples = 1\nvalue = [0, 0, 0, 0, 1, 0, 0]"] ;
91 -> 92 ;
93 [label="gini = 0.0\nsamples = 2\nvalue = [0, 0, 0, 2, 0, 0, 0]"] ;
91 -> 93 ;
94 [label="gini = 0.0\nsamples = 23\nvalue = [0, 0, 0, 23, 0, 0, 0]"] ;
90 -> 94 ;
95 [label="X[7] <= 0.991\ngini = 0.48\nsamples = 5\nvalue = [0, 0, 0, 2, 3, 0, 0]"] ;
73 -> 95 ;
96 [label="gini = 0.0\nsamples = 3\nvalue = [0, 0, 0, 0, 3, 0, 0]"] ;
95 -> 96 ;
97 [label="gini = 0.0\nsamples = 2\nvalue = [0, 0, 0, 2, 0, 0, 0]"] ;
95 -> 97 ;
98 [label="X[5] <= 24.5\ngini = 0.642\nsamples = 9\nvalue = [0, 0, 4, 3, 0, 2, 0]"] ;
72 -> 98 ;
99 [label="X[3] <= 0.8\ngini = 0.32\nsamples = 5\nvalue = [0, 0, 4, 1, 0, 0, 0]"] ;
98 -> 99 ;
100 [label="gini = 0.0\nsamples = 1\nvalue = [0, 0, 0, 1, 0, 0, 0]"] ;
99 -> 100 ;
101 [label="gini = 0.0\nsamples = 4\nvalue = [0, 0, 4, 0, 0, 0, 0]"] ;
99 -> 101 ;
102 [label="X[9] <= 0.43\ngini = 0.5\nsamples = 4\nvalue = [0, 0, 0, 2, 0, 2, 0]"] ;
98 -> 102 ;
103 [label="gini = 0.0\nsamples = 2\nvalue = [0, 0, 0, 2, 0, 0, 0]"] ;
102 -> 103 ;
104 [label="gini = 0.0\nsamples = 2\nvalue = [0, 0, 0, 0, 0, 2, 0]"] ;
102 -> 104 ;
105 [label="X[3] <= 1.85\ngini = 0.558\nsamples = 89\nvalue = [0, 0, 6, 50, 31, 2, 0]"] ;
71 -> 105 ;
106 [label="X[7] <= 0.991\ngini = 0.579\nsamples = 66\nvalue = [0, 0, 5, 32, 28, 1, 0]"] ;
105 -> 106 ;
107 [label="X[4] <= 0.052\ngini = 0.621\nsamples = 37\nvalue = [0, 0, 5, 13, 18, 1, 0]"] ;
106 -> 107 ;
108 [label="X[9] <= 0.625\ngini = 0.589\nsamples = 35\nvalue = [0, 0, 3, 13, 18, 1, 0]"] ;
107 -> 108 ;
109 [label="X[9] <= 0.335\ngini = 0.535\nsamples = 31\nvalue = [0, 0, 1, 11, 18, 1, 0]"] ;
108 -> 109 ;
110 [label="gini = 0.0\nsamples = 2\nvalue = [0, 0, 0, 2, 0, 0, 0]"] ;
109 -> 110 ;
111 [label="X[7] <= 0.991\ngini = 0.516\nsamples = 29\nvalue = [0, 0, 1, 9, 18, 1, 0]"] ;
109 -> 111 ;
112 [label="X[4] <= 0.035\ngini = 0.482\nsamples = 28\nvalue = [0, 0, 0, 9, 18, 1, 0]"] ;
111 -> 112 ;
113 [label="X[0] <= 7.05\ngini = 0.498\nsamples = 15\nvalue = [0, 0, 0, 7, 8, 0, 0]"] ;
112 -> 113 ;
114 [label="X[2] <= 0.26\ngini = 0.278\nsamples = 6\nvalue = [0, 0, 0, 5, 1, 0, 0]"] ;
113 -> 114 ;
115 [label="gini = 0.0\nsamples = 1\nvalue = [0, 0, 0, 0, 1, 0, 0]"] ;
114 -> 115 ;
116 [label="gini = 0.0\nsamples = 5\nvalue = [0, 0, 0, 5, 0, 0, 0]"] ;
114 -> 116 ;
117 [label="X[2] <= 0.45\ngini = 0.346\nsamples = 9\nvalue = [0, 0, 0, 2, 7, 0, 0]"] ;
113 -> 117 ;
118 [label="X[8] <= 2.985\ngini = 0.219\nsamples = 8\nvalue = [0, 0, 0, 1, 7, 0, 0]"] ;
117 -> 118 ;
119 [label="gini = 0.0\nsamples = 1\nvalue = [0, 0, 0, 1, 0, 0, 0]"] ;
118 -> 119 ;
120 [label="gini = 0.0\nsamples = 7\nvalue = [0, 0, 0, 0, 7, 0, 0]"] ;
118 -> 120 ;
121 [label="gini = 0.0\nsamples = 1\nvalue = [0, 0, 0, 1, 0, 0, 0]"] ;
117 -> 121 ;
122 [label="X[2] <= 0.37\ngini = 0.379\nsamples = 13\nvalue = [0, 0, 0, 2, 10, 1, 0]"] ;
112 -> 122 ;
123 [label="gini = 0.0\nsamples = 8\nvalue = [0, 0, 0, 0, 8, 0, 0]"] ;
122 -> 123 ;
124 [label="X[3] <= 1.55\ngini = 0.64\nsamples = 5\nvalue = [0, 0, 0, 2, 2, 1, 0]"] ;
122 -> 124 ;
125 [label="gini = 0.0\nsamples = 2\nvalue = [0, 0, 0, 0, 2, 0, 0]"] ;
124 -> 125 ;
126 [label="X[7] <= 0.99\ngini = 0.444\nsamples = 3\nvalue = [0, 0, 0, 2, 0, 1, 0]"] ;
124 -> 126 ;
127 [label="gini = 0.0\nsamples = 1\nvalue = [0, 0, 0, 0, 0, 1, 0]"] ;
126 -> 127 ;
128 [label="gini = 0.0\nsamples = 2\nvalue = [0, 0, 0, 2, 0, 0, 0]"] ;
126 -> 128 ;
129 [label="gini = 0.0\nsamples = 1\nvalue = [0, 0, 1, 0, 0, 0, 0]"] ;
111 -> 129 ;
130 [label="X[4] <= 0.039\ngini = 0.5\nsamples = 4\nvalue = [0, 0, 2, 2, 0, 0, 0]"] ;
108 -> 130 ;
131 [label="gini = 0.0\nsamples = 2\nvalue = [0, 0, 0, 2, 0, 0, 0]"] ;
130 -> 131 ;
132 [label="gini = 0.0\nsamples = 2\nvalue = [0, 0, 2, 0, 0, 0, 0]"] ;
130 -> 132 ;
133 [label="gini = 0.0\nsamples = 2\nvalue = [0, 0, 2, 0, 0, 0, 0]"] ;
107 -> 133 ;
134 [label="X[8] <= 3.215\ngini = 0.452\nsamples = 29\nvalue = [0, 0, 0, 19, 10, 0, 0]"] ;
106 -> 134 ;
135 [label="X[9] <= 0.43\ngini = 0.298\nsamples = 22\nvalue = [0, 0, 0, 18, 4, 0, 0]"] ;
134 -> 135 ;
136 [label="X[8] <= 3.15\ngini = 0.5\nsamples = 6\nvalue = [0, 0, 0, 3, 3, 0, 0]"] ;
135 -> 136 ;
137 [label="gini = 0.0\nsamples = 3\nvalue = [0, 0, 0, 0, 3, 0, 0]"] ;
136 -> 137 ;
138 [label="gini = 0.0\nsamples = 3\nvalue = [0, 0, 0, 3, 0, 0, 0]"] ;
136 -> 138 ;
139 [label="X[3] <= 1.45\ngini = 0.117\nsamples = 16\nvalue = [0, 0, 0, 15, 1, 0, 0]"] ;
135 -> 139 ;
140 [label="X[7] <= 0.991\ngini = 0.444\nsamples = 3\nvalue = [0, 0, 0, 2, 1, 0, 0]"] ;
139 -> 140 ;
141 [label="gini = 0.0\nsamples = 2\nvalue = [0, 0, 0, 2, 0, 0, 0]"] ;
140 -> 141 ;
142 [label="gini = 0.0\nsamples = 1\nvalue = [0, 0, 0, 0, 1, 0, 0]"] ;
140 -> 142 ;
143 [label="gini = 0.0\nsamples = 13\nvalue = [0, 0, 0, 13, 0, 0, 0]"] ;
139 -> 143 ;
144 [label="X[3] <= 1.65\ngini = 0.245\nsamples = 7\nvalue = [0, 0, 0, 1, 6, 0, 0]"] ;
134 -> 144 ;
145 [label="gini = 0.0\nsamples = 6\nvalue = [0, 0, 0, 0, 6, 0, 0]"] ;
144 -> 145 ;
146 [label="gini = 0.0\nsamples = 1\nvalue = [0, 0, 0, 1, 0, 0, 0]"] ;
144 -> 146 ;
147 [label="X[8] <= 3.265\ngini = 0.367\nsamples = 23\nvalue = [0, 0, 1, 18, 3, 1, 0]"] ;
105 -> 147 ;
148 [label="X[7] <= 0.99\ngini = 0.204\nsamples = 18\nvalue = [0, 0, 1, 16, 1, 0, 0]"] ;
147 -> 148 ;
149 [label="X[6] <= 99.0\ngini = 0.625\nsamples = 4\nvalue = [0, 0, 1, 2, 1, 0, 0]"] ;
148 -> 149 ;
150 [label="gini = 0.0\nsamples = 2\nvalue = [0, 0, 0, 2, 0, 0, 0]"] ;
149 -> 150 ;
151 [label="X[5] <= 29.5\ngini = 0.5\nsamples = 2\nvalue = [0, 0, 1, 0, 1, 0, 0]"] ;
149 -> 151 ;
152 [label="gini = 0.0\nsamples = 1\nvalue = [0, 0, 0, 0, 1, 0, 0]"] ;
151 -> 152 ;
153 [label="gini = 0.0\nsamples = 1\nvalue = [0, 0, 1, 0, 0, 0, 0]"] ;
151 -> 153 ;
154 [label="gini = 0.0\nsamples = 14\nvalue = [0, 0, 0, 14, 0, 0, 0]"] ;
148 -> 154 ;
155 [label="X[9] <= 0.61\ngini = 0.64\nsamples = 5\nvalue = [0, 0, 0, 2, 2, 1, 0]"] ;
147 -> 155 ;
156 [label="X[2] <= 0.355\ngini = 0.444\nsamples = 3\nvalue = [0, 0, 0, 0, 2, 1, 0]"] ;
155 -> 156 ;
157 [label="gini = 0.0\nsamples = 2\nvalue = [0, 0, 0, 0, 2, 0, 0]"] ;
156 -> 157 ;
158 [label="gini = 0.0\nsamples = 1\nvalue = [0, 0, 0, 0, 0, 1, 0]"] ;
156 -> 158 ;
159 [label="gini = 0.0\nsamples = 2\nvalue = [0, 0, 0, 2, 0, 0, 0]"] ;
155 -> 159 ;
160 [label="X[9] <= 0.375\ngini = 0.375\nsamples = 4\nvalue = [0, 0, 1, 0, 3, 0, 0]"] ;
70 -> 160 ;
161 [label="gini = 0.0\nsamples = 3\nvalue = [0, 0, 0, 0, 3, 0, 0]"] ;
160 -> 161 ;
162 [label="gini = 0.0\nsamples = 1\nvalue = [0, 0, 1, 0, 0, 0, 0]"] ;
160 -> 162 ;
163 [label="X[9] <= 0.44\ngini = 0.75\nsamples = 8\nvalue = [0, 1, 1, 1, 2, 3, 0]"] ;
69 -> 163 ;
164 [label="gini = 0.0\nsamples = 3\nvalue = [0, 0, 0, 0, 0, 3, 0]"] ;
163 -> 164 ;
165 [label="X[9] <= 0.535\ngini = 0.72\nsamples = 5\nvalue = [0, 1, 1, 1, 2, 0, 0]"] ;
163 -> 165 ;
166 [label="gini = 0.0\nsamples = 2\nvalue = [0, 0, 0, 0, 2, 0, 0]"] ;
165 -> 166 ;
167 [label="X[4] <= 0.063\ngini = 0.667\nsamples = 3\nvalue = [0, 1, 1, 1, 0, 0, 0]"] ;
165 -> 167 ;
168 [label="gini = 0.0\nsamples = 1\nvalue = [0, 1, 0, 0, 0, 0, 0]"] ;
167 -> 168 ;
169 [label="X[3] <= 1.95\ngini = 0.5\nsamples = 2\nvalue = [0, 0, 1, 1, 0, 0, 0]"] ;
167 -> 169 ;
170 [label="gini = 0.0\nsamples = 1\nvalue = [0, 0, 0, 1, 0, 0, 0]"] ;
169 -> 170 ;
171 [label="gini = 0.0\nsamples = 1\nvalue = [0, 0, 1, 0, 0, 0, 0]"] ;
169 -> 171 ;
172 [label="X[6] <= 116.5\ngini = 0.397\nsamples = 11\nvalue = [0, 0, 0, 3, 8, 0, 0]"] ;
68 -> 172 ;
173 [label="X[9] <= 0.755\ngini = 0.198\nsamples = 9\nvalue = [0, 0, 0, 1, 8, 0, 0]"] ;
172 -> 173 ;
174 [label="gini = 0.0\nsamples = 8\nvalue = [0, 0, 0, 0, 8, 0, 0]"] ;
173 -> 174 ;
175 [label="gini = 0.0\nsamples = 1\nvalue = [0, 0, 0, 1, 0, 0, 0]"] ;
173 -> 175 ;
176 [label="gini = 0.0\nsamples = 2\nvalue = [0, 0, 0, 2, 0, 0, 0]"] ;
172 -> 176 ;
177 [label="X[9] <= 0.485\ngini = 0.616\nsamples = 40\nvalue = [0, 0, 14, 20, 4, 1, 1]"] ;
29 -> 177 ;
178 [label="X[7] <= 0.99\ngini = 0.624\nsamples = 23\nvalue = [0, 0, 12, 7, 2, 1, 1]"] ;
177 -> 178 ;
179 [label="gini = 0.0\nsamples = 3\nvalue = [0, 0, 0, 3, 0, 0, 0]"] ;
178 -> 179 ;
180 [label="X[6] <= 163.0\ngini = 0.585\nsamples = 20\nvalue = [0, 0, 12, 4, 2, 1, 1]"] ;
178 -> 180 ;
181 [label="X[3] <= 1.8\ngini = 0.367\nsamples = 14\nvalue = [0, 0, 11, 1, 1, 0, 1]"] ;
180 -> 181 ;
182 [label="X[1] <= 0.145\ngini = 0.272\nsamples = 13\nvalue = [0, 0, 11, 1, 1, 0, 0]"] ;
181 -> 182 ;
183 [label="gini = 0.0\nsamples = 1\nvalue = [0, 0, 0, 0, 1, 0, 0]"] ;
182 -> 183 ;
184 [label="X[0] <= 6.1\ngini = 0.153\nsamples = 12\nvalue = [0, 0, 11, 1, 0, 0, 0]"] ;
182 -> 184 ;
185 [label="X[2] <= 0.305\ngini = 0.5\nsamples = 2\nvalue = [0, 0, 1, 1, 0, 0, 0]"] ;
184 -> 185 ;
186 [label="gini = 0.0\nsamples = 1\nvalue = [0, 0, 0, 1, 0, 0, 0]"] ;
185 -> 186 ;
187 [label="gini = 0.0\nsamples = 1\nvalue = [0, 0, 1, 0, 0, 0, 0]"] ;
185 -> 187 ;
188 [label="gini = 0.0\nsamples = 10\nvalue = [0, 0, 10, 0, 0, 0, 0]"] ;
184 -> 188 ;
189 [label="gini = 0.0\nsamples = 1\nvalue = [0, 0, 0, 0, 0, 0, 1]"] ;
181 -> 189 ;
190 [label="X[7] <= 0.991\ngini = 0.667\nsamples = 6\nvalue = [0, 0, 1, 3, 1, 1, 0]"] ;
180 -> 190 ;
191 [label="X[8] <= 3.015\ngini = 0.667\nsamples = 3\nvalue = [0, 0, 1, 0, 1, 1, 0]"] ;
190 -> 191 ;
192 [label="gini = 0.0\nsamples = 1\nvalue = [0, 0, 0, 0, 1, 0, 0]"] ;
191 -> 192 ;
193 [label="X[1] <= 0.235\ngini = 0.5\nsamples = 2\nvalue = [0, 0, 1, 0, 0, 1, 0]"] ;
191 -> 193 ;
194 [label="gini = 0.0\nsamples = 1\nvalue = [0, 0, 1, 0, 0, 0, 0]"] ;
193 -> 194 ;
195 [label="gini = 0.0\nsamples = 1\nvalue = [0, 0, 0, 0, 0, 1, 0]"] ;
193 -> 195 ;
196 [label="gini = 0.0\nsamples = 3\nvalue = [0, 0, 0, 3, 0, 0, 0]"] ;
190 -> 196 ;
197 [label="X[2] <= 0.26\ngini = 0.388\nsamples = 17\nvalue = [0, 0, 2, 13, 2, 0, 0]"] ;
177 -> 197 ;
198 [label="X[8] <= 3.17\ngini = 0.444\nsamples = 3\nvalue = [0, 0, 0, 1, 2, 0, 0]"] ;
197 -> 198 ;
199 [label="gini = 0.0\nsamples = 2\nvalue = [0, 0, 0, 0, 2, 0, 0]"] ;
198 -> 199 ;
200 [label="gini = 0.0\nsamples = 1\nvalue = [0, 0, 0, 1, 0, 0, 0]"] ;
198 -> 200 ;
201 [label="X[3] <= 1.85\ngini = 0.245\nsamples = 14\nvalue = [0, 0, 2, 12, 0, 0, 0]"] ;
197 -> 201 ;
202 [label="gini = 0.0\nsamples = 11\nvalue = [0, 0, 0, 11, 0, 0, 0]"] ;
201 -> 202 ;
203 [label="X[9] <= 0.745\ngini = 0.444\nsamples = 3\nvalue = [0, 0, 2, 1, 0, 0, 0]"] ;
201 -> 203 ;
204 [label="gini = 0.0\nsamples = 2\nvalue = [0, 0, 2, 0, 0, 0, 0]"] ;
203 -> 204 ;
205 [label="gini = 0.0\nsamples = 1\nvalue = [0, 0, 0, 1, 0, 0, 0]"] ;
203 -> 205 ;
206 [label="X[7] <= 0.99\ngini = 0.615\nsamples = 99\nvalue = [0, 1, 4, 45, 41, 7, 1]"] ;
28 -> 206 ;
207 [label="X[4] <= 0.037\ngini = 0.304\nsamples = 17\nvalue = [0, 0, 0, 2, 14, 1, 0]"] ;
206 -> 207 ;
208 [label="X[1] <= 0.185\ngini = 0.219\nsamples = 16\nvalue = [0, 0, 0, 2, 14, 0, 0]"] ;
207 -> 208 ;
209 [label="gini = 0.0\nsamples = 1\nvalue = [0, 0, 0, 1, 0, 0, 0]"] ;
208 -> 209 ;
210 [label="X[3] <= 2.05\ngini = 0.124\nsamples = 15\nvalue = [0, 0, 0, 1, 14, 0, 0]"] ;
208 -> 210 ;
211 [label="gini = 0.0\nsamples = 14\nvalue = [0, 0, 0, 0, 14, 0, 0]"] ;
210 -> 211 ;
212 [label="gini = 0.0\nsamples = 1\nvalue = [0, 0, 0, 1, 0, 0, 0]"] ;
210 -> 212 ;
213 [label="gini = 0.0\nsamples = 1\nvalue = [0, 0, 0, 0, 0, 1, 0]"] ;
207 -> 213 ;
214 [label="X[0] <= 6.45\ngini = 0.609\nsamples = 82\nvalue = [0, 1, 4, 43, 27, 6, 1]"] ;
206 -> 214 ;
215 [label="X[9] <= 0.755\ngini = 0.57\nsamples = 69\nvalue = [0, 1, 4, 41, 18, 5, 0]"] ;
214 -> 215 ;
216 [label="X[2] <= 0.535\ngini = 0.535\nsamples = 66\nvalue = [0, 1, 4, 41, 18, 2, 0]"] ;
215 -> 216 ;
217 [label="X[6] <= 107.0\ngini = 0.514\nsamples = 63\nvalue = [0, 1, 4, 41, 15, 2, 0]"] ;
216 -> 217 ;
218 [label="X[7] <= 0.99\ngini = 0.6\nsamples = 43\nvalue = [0, 1, 3, 23, 14, 2, 0]"] ;
217 -> 218 ;
219 [label="X[2] <= 0.24\ngini = 0.449\nsamples = 21\nvalue = [0, 0, 3, 15, 3, 0, 0]"] ;
218 -> 219 ;
220 [label="X[9] <= 0.5\ngini = 0.5\nsamples = 6\nvalue = [0, 0, 3, 3, 0, 0, 0]"] ;
219 -> 220 ;
221 [label="X[7] <= 0.99\ngini = 0.375\nsamples = 4\nvalue = [0, 0, 1, 3, 0, 0, 0]"] ;
220 -> 221 ;
222 [label="gini = 0.0\nsamples = 3\nvalue = [0, 0, 0, 3, 0, 0, 0]"] ;
221 -> 222 ;
223 [label="gini = 0.0\nsamples = 1\nvalue = [0, 0, 1, 0, 0, 0, 0]"] ;
221 -> 223 ;
224 [label="gini = 0.0\nsamples = 2\nvalue = [0, 0, 2, 0, 0, 0, 0]"] ;
220 -> 224 ;
225 [label="X[6] <= 94.0\ngini = 0.32\nsamples = 15\nvalue = [0, 0, 0, 12, 3, 0, 0]"] ;
219 -> 225 ;
226 [label="gini = 0.0\nsamples = 8\nvalue = [0, 0, 0, 8, 0, 0, 0]"] ;
225 -> 226 ;
227 [label="X[0] <= 5.95\ngini = 0.49\nsamples = 7\nvalue = [0, 0, 0, 4, 3, 0, 0]"] ;
225 -> 227 ;
228 [label="X[5] <= 22.5\ngini = 0.375\nsamples = 4\nvalue = [0, 0, 0, 1, 3, 0, 0]"] ;
227 -> 228 ;
229 [label="gini = 0.0\nsamples = 1\nvalue = [0, 0, 0, 1, 0, 0, 0]"] ;
228 -> 229 ;
230 [label="gini = 0.0\nsamples = 3\nvalue = [0, 0, 0, 0, 3, 0, 0]"] ;
228 -> 230 ;
231 [label="gini = 0.0\nsamples = 3\nvalue = [0, 0, 0, 3, 0, 0, 0]"] ;
227 -> 231 ;
232 [label="X[6] <= 85.0\ngini = 0.607\nsamples = 22\nvalue = [0, 1, 0, 8, 11, 2, 0]"] ;
218 -> 232 ;
233 [label="X[9] <= 0.525\ngini = 0.406\nsamples = 8\nvalue = [0, 1, 0, 0, 6, 1, 0]"] ;
232 -> 233 ;
234 [label="gini = 0.0\nsamples = 6\nvalue = [0, 0, 0, 0, 6, 0, 0]"] ;
233 -> 234 ;
235 [label="X[3] <= 1.35\ngini = 0.5\nsamples = 2\nvalue = [0, 1, 0, 0, 0, 1, 0]"] ;
233 -> 235 ;
236 [label="gini = 0.0\nsamples = 1\nvalue = [0, 1, 0, 0, 0, 0, 0]"] ;
235 -> 236 ;
237 [label="gini = 0.0\nsamples = 1\nvalue = [0, 0, 0, 0, 0, 1, 0]"] ;
235 -> 237 ;
238 [label="X[6] <= 97.5\ngini = 0.541\nsamples = 14\nvalue = [0, 0, 0, 8, 5, 1, 0]"] ;
232 -> 238 ;
239 [label="X[7] <= 0.991\ngini = 0.245\nsamples = 7\nvalue = [0, 0, 0, 6, 0, 1, 0]"] ;
238 -> 239 ;
240 [label="gini = 0.0\nsamples = 1\nvalue = [0, 0, 0, 0, 0, 1, 0]"] ;
239 -> 240 ;
241 [label="gini = 0.0\nsamples = 6\nvalue = [0, 0, 0, 6, 0, 0, 0]"] ;
239 -> 241 ;
242 [label="X[5] <= 30.5\ngini = 0.408\nsamples = 7\nvalue = [0, 0, 0, 2, 5, 0, 0]"] ;
238 -> 242 ;
243 [label="X[6] <= 101.0\ngini = 0.444\nsamples = 3\nvalue = [0, 0, 0, 2, 1, 0, 0]"] ;
242 -> 243 ;
244 [label="gini = 0.0\nsamples = 1\nvalue = [0, 0, 0, 0, 1, 0, 0]"] ;
243 -> 244 ;
245 [label="gini = 0.0\nsamples = 2\nvalue = [0, 0, 0, 2, 0, 0, 0]"] ;
243 -> 245 ;
246 [label="gini = 0.0\nsamples = 4\nvalue = [0, 0, 0, 0, 4, 0, 0]"] ;
242 -> 246 ;
247 [label="X[5] <= 15.5\ngini = 0.185\nsamples = 20\nvalue = [0, 0, 1, 18, 1, 0, 0]"] ;
217 -> 247 ;
248 [label="gini = 0.0\nsamples = 1\nvalue = [0, 0, 1, 0, 0, 0, 0]"] ;
247 -> 248 ;
249 [label="X[6] <= 126.0\ngini = 0.1\nsamples = 19\nvalue = [0, 0, 0, 18, 1, 0, 0]"] ;
247 -> 249 ;
250 [label="gini = 0.0\nsamples = 16\nvalue = [0, 0, 0, 16, 0, 0, 0]"] ;
249 -> 250 ;
251 [label="X[1] <= 0.253\ngini = 0.444\nsamples = 3\nvalue = [0, 0, 0, 2, 1, 0, 0]"] ;
249 -> 251 ;
252 [label="gini = 0.0\nsamples = 1\nvalue = [0, 0, 0, 0, 1, 0, 0]"] ;
251 -> 252 ;
253 [label="gini = 0.0\nsamples = 2\nvalue = [0, 0, 0, 2, 0, 0, 0]"] ;
251 -> 253 ;
254 [label="gini = 0.0\nsamples = 3\nvalue = [0, 0, 0, 0, 3, 0, 0]"] ;
216 -> 254 ;
255 [label="gini = 0.0\nsamples = 3\nvalue = [0, 0, 0, 0, 0, 3, 0]"] ;
215 -> 255 ;
256 [label="X[8] <= 3.365\ngini = 0.485\nsamples = 13\nvalue = [0, 0, 0, 2, 9, 1, 1]"] ;
214 -> 256 ;
257 [label="X[5] <= 19.5\ngini = 0.298\nsamples = 11\nvalue = [0, 0, 0, 2, 9, 0, 0]"] ;
256 -> 257 ;
258 [label="gini = 0.0\nsamples = 1\nvalue = [0, 0, 0, 1, 0, 0, 0]"] ;
257 -> 258 ;
259 [label="X[4] <= 0.026\ngini = 0.18\nsamples = 10\nvalue = [0, 0, 0, 1, 9, 0, 0]"] ;
257 -> 259 ;
260 [label="gini = 0.0\nsamples = 1\nvalue = [0, 0, 0, 1, 0, 0, 0]"] ;
259 -> 260 ;
261 [label="gini = 0.0\nsamples = 9\nvalue = [0, 0, 0, 0, 9, 0, 0]"] ;
259 -> 261 ;
262 [label="X[1] <= 0.325\ngini = 0.5\nsamples = 2\nvalue = [0, 0, 0, 0, 0, 1, 1]"] ;
256 -> 262 ;
263 [label="gini = 0.0\nsamples = 1\nvalue = [0, 0, 0, 0, 0, 0, 1]"] ;
262 -> 263 ;
264 [label="gini = 0.0\nsamples = 1\nvalue = [0, 0, 0, 0, 0, 1, 0]"] ;
262 -> 264 ;
265 [label="X[6] <= 173.5\ngini = 0.651\nsamples = 131\nvalue = [0, 0, 14, 48, 58, 11, 0]"] ;
27 -> 265 ;
266 [label="X[8] <= 3.09\ngini = 0.651\nsamples = 123\nvalue = [0, 0, 14, 40, 58, 11, 0]"] ;
265 -> 266 ;
267 [label="X[2] <= 0.295\ngini = 0.56\nsamples = 30\nvalue = [0, 0, 6, 18, 6, 0, 0]"] ;
266 -> 267 ;
268 [label="X[9] <= 0.415\ngini = 0.62\nsamples = 10\nvalue = [0, 0, 3, 2, 5, 0, 0]"] ;
267 -> 268 ;
269 [label="X[4] <= 0.028\ngini = 0.5\nsamples = 4\nvalue = [0, 0, 2, 2, 0, 0, 0]"] ;
268 -> 269 ;
270 [label="gini = 0.0\nsamples = 2\nvalue = [0, 0, 0, 2, 0, 0, 0]"] ;
269 -> 270 ;
271 [label="gini = 0.0\nsamples = 2\nvalue = [0, 0, 2, 0, 0, 0, 0]"] ;
269 -> 271 ;
272 [label="X[5] <= 57.5\ngini = 0.278\nsamples = 6\nvalue = [0, 0, 1, 0, 5, 0, 0]"] ;
268 -> 272 ;
273 [label="gini = 0.0\nsamples = 5\nvalue = [0, 0, 0, 0, 5, 0, 0]"] ;
272 -> 273 ;
274 [label="gini = 0.0\nsamples = 1\nvalue = [0, 0, 1, 0, 0, 0, 0]"] ;
272 -> 274 ;
275 [label="X[8] <= 2.975\ngini = 0.335\nsamples = 20\nvalue = [0, 0, 3, 16, 1, 0, 0]"] ;
267 -> 275 ;
276 [label="X[5] <= 47.5\ngini = 0.375\nsamples = 4\nvalue = [0, 0, 3, 1, 0, 0, 0]"] ;
275 -> 276 ;
277 [label="gini = 0.0\nsamples = 1\nvalue = [0, 0, 0, 1, 0, 0, 0]"] ;
276 -> 277 ;
278 [label="gini = 0.0\nsamples = 3\nvalue = [0, 0, 3, 0, 0, 0, 0]"] ;
276 -> 278 ;
279 [label="X[7] <= 0.989\ngini = 0.117\nsamples = 16\nvalue = [0, 0, 0, 15, 1, 0, 0]"] ;
275 -> 279 ;
280 [label="X[2] <= 0.35\ngini = 0.5\nsamples = 2\nvalue = [0, 0, 0, 1, 1, 0, 0]"] ;
279 -> 280 ;
281 [label="gini = 0.0\nsamples = 1\nvalue = [0, 0, 0, 1, 0, 0, 0]"] ;
280 -> 281 ;
282 [label="gini = 0.0\nsamples = 1\nvalue = [0, 0, 0, 0, 1, 0, 0]"] ;
280 -> 282 ;
283 [label="gini = 0.0\nsamples = 14\nvalue = [0, 0, 0, 14, 0, 0, 0]"] ;
279 -> 283 ;
284 [label="X[0] <= 6.05\ngini = 0.61\nsamples = 93\nvalue = [0, 0, 8, 22, 52, 11, 0]"] ;
266 -> 284 ;
285 [label="X[6] <= 110.5\ngini = 0.729\nsamples = 33\nvalue = [0, 0, 5, 11, 10, 7, 0]"] ;
284 -> 285 ;
286 [label="X[1] <= 0.455\ngini = 0.64\nsamples = 15\nvalue = [0, 0, 4, 7, 4, 0, 0]"] ;
285 -> 286 ;
287 [label="X[1] <= 0.27\ngini = 0.592\nsamples = 13\nvalue = [0, 0, 2, 7, 4, 0, 0]"] ;
286 -> 287 ;
288 [label="X[0] <= 5.85\ngini = 0.529\nsamples = 11\nvalue = [0, 0, 2, 7, 2, 0, 0]"] ;
287 -> 288 ;
289 [label="X[6] <= 98.5\ngini = 0.653\nsamples = 7\nvalue = [0, 0, 2, 3, 2, 0, 0]"] ;
288 -> 289 ;
290 [label="X[4] <= 0.036\ngini = 0.444\nsamples = 3\nvalue = [0, 0, 1, 0, 2, 0, 0]"] ;
289 -> 290 ;
291 [label="gini = 0.0\nsamples = 1\nvalue = [0, 0, 1, 0, 0, 0, 0]"] ;
290 -> 291 ;
292 [label="gini = 0.0\nsamples = 2\nvalue = [0, 0, 0, 0, 2, 0, 0]"] ;
290 -> 292 ;
293 [label="X[6] <= 102.0\ngini = 0.375\nsamples = 4\nvalue = [0, 0, 1, 3, 0, 0, 0]"] ;
289 -> 293 ;
294 [label="gini = 0.0\nsamples = 3\nvalue = [0, 0, 0, 3, 0, 0, 0]"] ;
293 -> 294 ;
295 [label="gini = 0.0\nsamples = 1\nvalue = [0, 0, 1, 0, 0, 0, 0]"] ;
293 -> 295 ;
296 [label="gini = 0.0\nsamples = 4\nvalue = [0, 0, 0, 4, 0, 0, 0]"] ;
288 -> 296 ;
297 [label="gini = 0.0\nsamples = 2\nvalue = [0, 0, 0, 0, 2, 0, 0]"] ;
287 -> 297 ;
298 [label="gini = 0.0\nsamples = 2\nvalue = [0, 0, 2, 0, 0, 0, 0]"] ;
286 -> 298 ;
299 [label="X[4] <= 0.034\ngini = 0.685\nsamples = 18\nvalue = [0, 0, 1, 4, 6, 7, 0]"] ;
285 -> 299 ;
300 [label="X[4] <= 0.027\ngini = 0.531\nsamples = 8\nvalue = [0, 0, 0, 1, 5, 2, 0]"] ;
299 -> 300 ;
301 [label="gini = 0.0\nsamples = 2\nvalue = [0, 0, 0, 0, 0, 2, 0]"] ;
300 -> 301 ;
302 [label="X[4] <= 0.032\ngini = 0.278\nsamples = 6\nvalue = [0, 0, 0, 1, 5, 0, 0]"] ;
300 -> 302 ;
303 [label="gini = 0.0\nsamples = 4\nvalue = [0, 0, 0, 0, 4, 0, 0]"] ;
302 -> 303 ;
304 [label="X[5] <= 43.0\ngini = 0.5\nsamples = 2\nvalue = [0, 0, 0, 1, 1, 0, 0]"] ;
302 -> 304 ;
305 [label="gini = 0.0\nsamples = 1\nvalue = [0, 0, 0, 0, 1, 0, 0]"] ;
304 -> 305 ;
306 [label="gini = 0.0\nsamples = 1\nvalue = [0, 0, 0, 1, 0, 0, 0]"] ;
304 -> 306 ;
307 [label="X[7] <= 0.99\ngini = 0.64\nsamples = 10\nvalue = [0, 0, 1, 3, 1, 5, 0]"] ;
299 -> 307 ;
308 [label="X[3] <= 1.85\ngini = 0.278\nsamples = 6\nvalue = [0, 0, 0, 1, 0, 5, 0]"] ;
307 -> 308 ;
309 [label="gini = 0.0\nsamples = 5\nvalue = [0, 0, 0, 0, 0, 5, 0]"] ;
308 -> 309 ;
310 [label="gini = 0.0\nsamples = 1\nvalue = [0, 0, 0, 1, 0, 0, 0]"] ;
308 -> 310 ;
311 [label="X[7] <= 0.991\ngini = 0.625\nsamples = 4\nvalue = [0, 0, 1, 2, 1, 0, 0]"] ;
307 -> 311 ;
312 [label="gini = 0.0\nsamples = 2\nvalue = [0, 0, 0, 2, 0, 0, 0]"] ;
311 -> 312 ;
313 [label="X[5] <= 56.5\ngini = 0.5\nsamples = 2\nvalue = [0, 0, 1, 0, 1, 0, 0]"] ;
311 -> 313 ;
314 [label="gini = 0.0\nsamples = 1\nvalue = [0, 0, 1, 0, 0, 0, 0]"] ;
313 -> 314 ;
315 [label="gini = 0.0\nsamples = 1\nvalue = [0, 0, 0, 0, 1, 0, 0]"] ;
313 -> 315 ;
316 [label="X[4] <= 0.027\ngini = 0.469\nsamples = 60\nvalue = [0, 0, 3, 11, 42, 4, 0]"] ;
284 -> 316 ;
317 [label="X[9] <= 0.49\ngini = 0.56\nsamples = 5\nvalue = [0, 0, 1, 3, 0, 1, 0]"] ;
316 -> 317 ;
318 [label="X[3] <= 1.925\ngini = 0.5\nsamples = 2\nvalue = [0, 0, 1, 0, 0, 1, 0]"] ;
317 -> 318 ;
319 [label="gini = 0.0\nsamples = 1\nvalue = [0, 0, 1, 0, 0, 0, 0]"] ;
318 -> 319 ;
320 [label="gini = 0.0\nsamples = 1\nvalue = [0, 0, 0, 0, 0, 1, 0]"] ;
318 -> 320 ;
321 [label="gini = 0.0\nsamples = 3\nvalue = [0, 0, 0, 3, 0, 0, 0]"] ;
317 -> 321 ;
322 [label="X[2] <= 0.51\ngini = 0.391\nsamples = 55\nvalue = [0, 0, 2, 8, 42, 3, 0]"] ;
316 -> 322 ;
323 [label="X[4] <= 0.045\ngini = 0.351\nsamples = 53\nvalue = [0, 0, 1, 7, 42, 3, 0]"] ;
322 -> 323 ;
324 [label="X[7] <= 0.989\ngini = 0.283\nsamples = 44\nvalue = [0, 0, 1, 3, 37, 3, 0]"] ;
323 -> 324 ;
325 [label="gini = 0.0\nsamples = 1\nvalue = [0, 0, 0, 0, 0, 1, 0]"] ;
324 -> 325 ;
326 [label="X[8] <= 3.4\ngini = 0.252\nsamples = 43\nvalue = [0, 0, 1, 3, 37, 2, 0]"] ;
324 -> 326 ;
327 [label="X[1] <= 0.385\ngini = 0.188\nsamples = 39\nvalue = [0, 0, 0, 3, 35, 1, 0]"] ;
326 -> 327 ;
328 [label="X[2] <= 0.28\ngini = 0.152\nsamples = 37\nvalue = [0, 0, 0, 2, 34, 1, 0]"] ;
327 -> 328 ;
329 [label="X[6] <= 125.5\ngini = 0.444\nsamples = 3\nvalue = [0, 0, 0, 1, 2, 0, 0]"] ;
328 -> 329 ;
330 [label="gini = 0.0\nsamples = 1\nvalue = [0, 0, 0, 1, 0, 0, 0]"] ;
329 -> 330 ;
331 [label="gini = 0.0\nsamples = 2\nvalue = [0, 0, 0, 0, 2, 0, 0]"] ;
329 -> 331 ;
332 [label="X[6] <= 143.5\ngini = 0.112\nsamples = 34\nvalue = [0, 0, 0, 1, 32, 1, 0]"] ;
328 -> 332 ;
333 [label="gini = 0.0\nsamples = 22\nvalue = [0, 0, 0, 0, 22, 0, 0]"] ;
332 -> 333 ;
334 [label="X[5] <= 43.5\ngini = 0.292\nsamples = 12\nvalue = [0, 0, 0, 1, 10, 1, 0]"] ;
332 -> 334 ;
335 [label="gini = 0.0\nsamples = 1\nvalue = [0, 0, 0, 0, 0, 1, 0]"] ;
334 -> 335 ;
336 [label="X[6] <= 145.5\ngini = 0.165\nsamples = 11\nvalue = [0, 0, 0, 1, 10, 0, 0]"] ;
334 -> 336 ;
337 [label="gini = 0.0\nsamples = 1\nvalue = [0, 0, 0, 1, 0, 0, 0]"] ;
336 -> 337 ;
338 [label="gini = 0.0\nsamples = 10\nvalue = [0, 0, 0, 0, 10, 0, 0]"] ;
336 -> 338 ;
339 [label="X[7] <= 0.99\ngini = 0.5\nsamples = 2\nvalue = [0, 0, 0, 1, 1, 0, 0]"] ;
327 -> 339 ;
340 [label="gini = 0.0\nsamples = 1\nvalue = [0, 0, 0, 0, 1, 0, 0]"] ;
339 -> 340 ;
341 [label="gini = 0.0\nsamples = 1\nvalue = [0, 0, 0, 1, 0, 0, 0]"] ;
339 -> 341 ;
342 [label="X[0] <= 6.55\ngini = 0.625\nsamples = 4\nvalue = [0, 0, 1, 0, 2, 1, 0]"] ;
326 -> 342 ;
343 [label="X[4] <= 0.034\ngini = 0.5\nsamples = 2\nvalue = [0, 0, 1, 0, 0, 1, 0]"] ;
342 -> 343 ;
344 [label="gini = 0.0\nsamples = 1\nvalue = [0, 0, 1, 0, 0, 0, 0]"] ;
343 -> 344 ;
345 [label="gini = 0.0\nsamples = 1\nvalue = [0, 0, 0, 0, 0, 1, 0]"] ;
343 -> 345 ;
346 [label="gini = 0.0\nsamples = 2\nvalue = [0, 0, 0, 0, 2, 0, 0]"] ;
342 -> 346 ;
347 [label="X[3] <= 1.25\ngini = 0.494\nsamples = 9\nvalue = [0, 0, 0, 4, 5, 0, 0]"] ;
323 -> 347 ;
348 [label="X[4] <= 0.046\ngini = 0.278\nsamples = 6\nvalue = [0, 0, 0, 1, 5, 0, 0]"] ;
347 -> 348 ;
349 [label="gini = 0.0\nsamples = 1\nvalue = [0, 0, 0, 1, 0, 0, 0]"] ;
348 -> 349 ;
350 [label="gini = 0.0\nsamples = 5\nvalue = [0, 0, 0, 0, 5, 0, 0]"] ;
348 -> 350 ;
351 [label="gini = 0.0\nsamples = 3\nvalue = [0, 0, 0, 3, 0, 0, 0]"] ;
347 -> 351 ;
352 [label="X[1] <= 0.23\ngini = 0.5\nsamples = 2\nvalue = [0, 0, 1, 1, 0, 0, 0]"] ;
322 -> 352 ;
353 [label="gini = 0.0\nsamples = 1\nvalue = [0, 0, 1, 0, 0, 0, 0]"] ;
352 -> 353 ;
354 [label="gini = 0.0\nsamples = 1\nvalue = [0, 0, 0, 1, 0, 0, 0]"] ;
352 -> 354 ;
355 [label="gini = 0.0\nsamples = 8\nvalue = [0, 0, 0, 8, 0, 0, 0]"] ;
265 -> 355 ;
356 [label="X[9] <= 0.585\ngini = 0.641\nsamples = 220\nvalue = [0, 8, 73, 106, 27, 6, 0]"] ;
2 -> 356 ;
357 [label="X[1] <= 0.333\ngini = 0.603\nsamples = 180\nvalue = [0, 8, 66, 91, 12, 3, 0]"] ;
356 -> 357 ;
358 [label="X[0] <= 7.25\ngini = 0.578\nsamples = 155\nvalue = [0, 4, 49, 87, 12, 3, 0]"] ;
357 -> 358 ;
359 [label="X[8] <= 3.345\ngini = 0.584\nsamples = 109\nvalue = [0, 2, 43, 55, 8, 1, 0]"] ;
358 -> 359 ;
360 [label="X[9] <= 0.525\ngini = 0.583\nsamples = 88\nvalue = [0, 2, 41, 39, 5, 1, 0]"] ;
359 -> 360 ;
361 [label="X[9] <= 0.485\ngini = 0.588\nsamples = 75\nvalue = [0, 2, 38, 29, 5, 1, 0]"] ;
360 -> 361 ;
362 [label="X[3] <= 1.9\ngini = 0.599\nsamples = 63\nvalue = [0, 2, 27, 29, 4, 1, 0]"] ;
361 -> 362 ;
363 [label="X[6] <= 111.5\ngini = 0.594\nsamples = 55\nvalue = [0, 2, 27, 22, 3, 1, 0]"] ;
362 -> 363 ;
364 [label="X[6] <= 77.5\ngini = 0.562\nsamples = 18\nvalue = [0, 1, 4, 11, 2, 0, 0]"] ;
363 -> 364 ;
365 [label="X[9] <= 0.445\ngini = 0.56\nsamples = 5\nvalue = [0, 1, 3, 0, 1, 0, 0]"] ;
364 -> 365 ;
366 [label="gini = 0.0\nsamples = 3\nvalue = [0, 0, 3, 0, 0, 0, 0]"] ;
365 -> 366 ;
367 [label="X[1] <= 0.245\ngini = 0.5\nsamples = 2\nvalue = [0, 1, 0, 0, 1, 0, 0]"] ;
365 -> 367 ;
368 [label="gini = 0.0\nsamples = 1\nvalue = [0, 0, 0, 0, 1, 0, 0]"] ;
367 -> 368 ;
369 [label="gini = 0.0\nsamples = 1\nvalue = [0, 1, 0, 0, 0, 0, 0]"] ;
367 -> 369 ;
370 [label="X[5] <= 39.0\ngini = 0.272\nsamples = 13\nvalue = [0, 0, 1, 11, 1, 0, 0]"] ;
364 -> 370 ;
371 [label="X[3] <= 1.65\ngini = 0.153\nsamples = 12\nvalue = [0, 0, 0, 11, 1, 0, 0]"] ;
370 -> 371 ;
372 [label="gini = 0.0\nsamples = 11\nvalue = [0, 0, 0, 11, 0, 0, 0]"] ;
371 -> 372 ;
373 [label="gini = 0.0\nsamples = 1\nvalue = [0, 0, 0, 0, 1, 0, 0]"] ;
371 -> 373 ;
374 [label="gini = 0.0\nsamples = 1\nvalue = [0, 0, 1, 0, 0, 0, 0]"] ;
370 -> 374 ;
375 [label="X[0] <= 6.9\ngini = 0.523\nsamples = 37\nvalue = [0, 1, 23, 11, 1, 1, 0]"] ;
363 -> 375 ;
376 [label="X[6] <= 200.75\ngini = 0.398\nsamples = 31\nvalue = [0, 1, 23, 7, 0, 0, 0]"] ;
375 -> 376 ;
377 [label="X[4] <= 0.066\ngini = 0.328\nsamples = 29\nvalue = [0, 0, 23, 6, 0, 0, 0]"] ;
376 -> 377 ;
378 [label="X[5] <= 20.0\ngini = 0.293\nsamples = 28\nvalue = [0, 0, 23, 5, 0, 0, 0]"] ;
377 -> 378 ;
379 [label="X[4] <= 0.026\ngini = 0.5\nsamples = 4\nvalue = [0, 0, 2, 2, 0, 0, 0]"] ;
378 -> 379 ;
380 [label="gini = 0.0\nsamples = 1\nvalue = [0, 0, 1, 0, 0, 0, 0]"] ;
379 -> 380 ;
381 [label="X[4] <= 0.05\ngini = 0.444\nsamples = 3\nvalue = [0, 0, 1, 2, 0, 0, 0]"] ;
379 -> 381 ;
382 [label="gini = 0.0\nsamples = 2\nvalue = [0, 0, 0, 2, 0, 0, 0]"] ;
381 -> 382 ;
383 [label="gini = 0.0\nsamples = 1\nvalue = [0, 0, 1, 0, 0, 0, 0]"] ;
381 -> 383 ;
384 [label="X[5] <= 52.0\ngini = 0.219\nsamples = 24\nvalue = [0, 0, 21, 3, 0, 0, 0]"] ;
378 -> 384 ;
385 [label="gini = 0.0\nsamples = 14\nvalue = [0, 0, 14, 0, 0, 0, 0]"] ;
384 -> 385 ;
386 [label="X[4] <= 0.041\ngini = 0.42\nsamples = 10\nvalue = [0, 0, 7, 3, 0, 0, 0]"] ;
384 -> 386 ;
387 [label="gini = 0.0\nsamples = 5\nvalue = [0, 0, 5, 0, 0, 0, 0]"] ;
386 -> 387 ;
388 [label="X[6] <= 171.0\ngini = 0.48\nsamples = 5\nvalue = [0, 0, 2, 3, 0, 0, 0]"] ;
386 -> 388 ;
389 [label="gini = 0.0\nsamples = 3\nvalue = [0, 0, 0, 3, 0, 0, 0]"] ;
388 -> 389 ;
390 [label="gini = 0.0\nsamples = 2\nvalue = [0, 0, 2, 0, 0, 0, 0]"] ;
388 -> 390 ;
391 [label="gini = 0.0\nsamples = 1\nvalue = [0, 0, 0, 1, 0, 0, 0]"] ;
377 -> 391 ;
392 [label="X[7] <= 0.992\ngini = 0.5\nsamples = 2\nvalue = [0, 1, 0, 1, 0, 0, 0]"] ;
376 -> 392 ;
393 [label="gini = 0.0\nsamples = 1\nvalue = [0, 0, 0, 1, 0, 0, 0]"] ;
392 -> 393 ;
394 [label="gini = 0.0\nsamples = 1\nvalue = [0, 1, 0, 0, 0, 0, 0]"] ;
392 -> 394 ;
395 [label="X[4] <= 0.038\ngini = 0.5\nsamples = 6\nvalue = [0, 0, 0, 4, 1, 1, 0]"] ;
375 -> 395 ;
396 [label="X[3] <= 1.35\ngini = 0.5\nsamples = 2\nvalue = [0, 0, 0, 0, 1, 1, 0]"] ;
395 -> 396 ;
397 [label="gini = 0.0\nsamples = 1\nvalue = [0, 0, 0, 0, 0, 1, 0]"] ;
396 -> 397 ;
398 [label="gini = 0.0\nsamples = 1\nvalue = [0, 0, 0, 0, 1, 0, 0]"] ;
396 -> 398 ;
399 [label="gini = 0.0\nsamples = 4\nvalue = [0, 0, 0, 4, 0, 0, 0]"] ;
395 -> 399 ;
400 [label="X[0] <= 6.85\ngini = 0.219\nsamples = 8\nvalue = [0, 0, 0, 7, 1, 0, 0]"] ;
362 -> 400 ;
401 [label="gini = 0.0\nsamples = 7\nvalue = [0, 0, 0, 7, 0, 0, 0]"] ;
400 -> 401 ;
402 [label="gini = 0.0\nsamples = 1\nvalue = [0, 0, 0, 0, 1, 0, 0]"] ;
400 -> 402 ;
403 [label="X[8] <= 3.28\ngini = 0.153\nsamples = 12\nvalue = [0, 0, 11, 0, 1, 0, 0]"] ;
361 -> 403 ;
404 [label="gini = 0.0\nsamples = 11\nvalue = [0, 0, 11, 0, 0, 0, 0]"] ;
403 -> 404 ;
405 [label="gini = 0.0\nsamples = 1\nvalue = [0, 0, 0, 0, 1, 0, 0]"] ;
403 -> 405 ;
406 [label="X[7] <= 0.992\ngini = 0.355\nsamples = 13\nvalue = [0, 0, 3, 10, 0, 0, 0]"] ;
360 -> 406 ;
407 [label="X[2] <= 0.285\ngini = 0.375\nsamples = 4\nvalue = [0, 0, 3, 1, 0, 0, 0]"] ;
406 -> 407 ;
408 [label="gini = 0.0\nsamples = 3\nvalue = [0, 0, 3, 0, 0, 0, 0]"] ;
407 -> 408 ;
409 [label="gini = 0.0\nsamples = 1\nvalue = [0, 0, 0, 1, 0, 0, 0]"] ;
407 -> 409 ;
410 [label="gini = 0.0\nsamples = 9\nvalue = [0, 0, 0, 9, 0, 0, 0]"] ;
406 -> 410 ;
411 [label="X[8] <= 3.365\ngini = 0.39\nsamples = 21\nvalue = [0, 0, 2, 16, 3, 0, 0]"] ;
359 -> 411 ;
412 [label="X[7] <= 0.992\ngini = 0.444\nsamples = 3\nvalue = [0, 0, 0, 1, 2, 0, 0]"] ;
411 -> 412 ;
413 [label="gini = 0.0\nsamples = 1\nvalue = [0, 0, 0, 1, 0, 0, 0]"] ;
412 -> 413 ;
414 [label="gini = 0.0\nsamples = 2\nvalue = [0, 0, 0, 0, 2, 0, 0]"] ;
412 -> 414 ;
415 [label="X[4] <= 0.046\ngini = 0.29\nsamples = 18\nvalue = [0, 0, 2, 15, 1, 0, 0]"] ;
411 -> 415 ;
416 [label="X[2] <= 0.19\ngini = 0.215\nsamples = 17\nvalue = [0, 0, 1, 15, 1, 0, 0]"] ;
415 -> 416 ;
417 [label="gini = 0.0\nsamples = 1\nvalue = [0, 0, 1, 0, 0, 0, 0]"] ;
416 -> 417 ;
418 [label="X[8] <= 3.465\ngini = 0.117\nsamples = 16\nvalue = [0, 0, 0, 15, 1, 0, 0]"] ;
416 -> 418 ;
419 [label="gini = 0.0\nsamples = 13\nvalue = [0, 0, 0, 13, 0, 0, 0]"] ;
418 -> 419 ;
420 [label="X[2] <= 0.275\ngini = 0.444\nsamples = 3\nvalue = [0, 0, 0, 2, 1, 0, 0]"] ;
418 -> 420 ;
421 [label="gini = 0.0\nsamples = 1\nvalue = [0, 0, 0, 0, 1, 0, 0]"] ;
420 -> 421 ;
422 [label="gini = 0.0\nsamples = 2\nvalue = [0, 0, 0, 2, 0, 0, 0]"] ;
420 -> 422 ;
423 [label="gini = 0.0\nsamples = 1\nvalue = [0, 0, 1, 0, 0, 0, 0]"] ;
415 -> 423 ;
424 [label="X[7] <= 0.992\ngini = 0.488\nsamples = 46\nvalue = [0, 2, 6, 32, 4, 2, 0]"] ;
358 -> 424 ;
425 [label="X[1] <= 0.205\ngini = 0.658\nsamples = 15\nvalue = [0, 0, 6, 6, 1, 2, 0]"] ;
424 -> 425 ;
426 [label="gini = 0.0\nsamples = 5\nvalue = [0, 0, 0, 5, 0, 0, 0]"] ;
425 -> 426 ;
427 [label="X[2] <= 0.335\ngini = 0.58\nsamples = 10\nvalue = [0, 0, 6, 1, 1, 2, 0]"] ;
425 -> 427 ;
428 [label="X[5] <= 37.0\ngini = 0.625\nsamples = 4\nvalue = [0, 0, 0, 1, 1, 2, 0]"] ;
427 -> 428 ;
429 [label="gini = 0.0\nsamples = 2\nvalue = [0, 0, 0, 0, 0, 2, 0]"] ;
428 -> 429 ;
430 [label="X[8] <= 3.115\ngini = 0.5\nsamples = 2\nvalue = [0, 0, 0, 1, 1, 0, 0]"] ;
428 -> 430 ;
431 [label="gini = 0.0\nsamples = 1\nvalue = [0, 0, 0, 1, 0, 0, 0]"] ;
430 -> 431 ;
432 [label="gini = 0.0\nsamples = 1\nvalue = [0, 0, 0, 0, 1, 0, 0]"] ;
430 -> 432 ;
433 [label="gini = 0.0\nsamples = 6\nvalue = [0, 0, 6, 0, 0, 0, 0]"] ;
427 -> 433 ;
434 [label="X[1] <= 0.185\ngini = 0.283\nsamples = 31\nvalue = [0, 2, 0, 26, 3, 0, 0]"] ;
424 -> 434 ;
435 [label="X[6] <= 102.5\ngini = 0.48\nsamples = 5\nvalue = [0, 0, 0, 2, 3, 0, 0]"] ;
434 -> 435 ;
436 [label="gini = 0.0\nsamples = 2\nvalue = [0, 0, 0, 2, 0, 0, 0]"] ;
435 -> 436 ;
437 [label="gini = 0.0\nsamples = 3\nvalue = [0, 0, 0, 0, 3, 0, 0]"] ;
435 -> 437 ;
438 [label="X[6] <= 41.5\ngini = 0.142\nsamples = 26\nvalue = [0, 2, 0, 24, 0, 0, 0]"] ;
434 -> 438 ;
439 [label="gini = 0.0\nsamples = 1\nvalue = [0, 1, 0, 0, 0, 0, 0]"] ;
438 -> 439 ;
440 [label="X[0] <= 8.4\ngini = 0.077\nsamples = 25\nvalue = [0, 1, 0, 24, 0, 0, 0]"] ;
438 -> 440 ;
441 [label="gini = 0.0\nsamples = 19\nvalue = [0, 0, 0, 19, 0, 0, 0]"] ;
440 -> 441 ;
442 [label="X[2] <= 0.405\ngini = 0.278\nsamples = 6\nvalue = [0, 1, 0, 5, 0, 0, 0]"] ;
440 -> 442 ;
443 [label="gini = 0.0\nsamples = 1\nvalue = [0, 1, 0, 0, 0, 0, 0]"] ;
442 -> 443 ;
444 [label="gini = 0.0\nsamples = 5\nvalue = [0, 0, 0, 5, 0, 0, 0]"] ;
442 -> 444 ;
445 [label="X[9] <= 0.365\ngini = 0.486\nsamples = 25\nvalue = [0, 4, 17, 4, 0, 0, 0]"] ;
357 -> 445 ;
446 [label="X[5] <= 19.5\ngini = 0.48\nsamples = 5\nvalue = [0, 3, 0, 2, 0, 0, 0]"] ;
445 -> 446 ;
447 [label="gini = 0.0\nsamples = 3\nvalue = [0, 3, 0, 0, 0, 0, 0]"] ;
446 -> 447 ;
448 [label="gini = 0.0\nsamples = 2\nvalue = [0, 0, 0, 2, 0, 0, 0]"] ;
446 -> 448 ;
449 [label="X[2] <= 0.045\ngini = 0.265\nsamples = 20\nvalue = [0, 1, 17, 2, 0, 0, 0]"] ;
445 -> 449 ;
450 [label="gini = 0.0\nsamples = 1\nvalue = [0, 1, 0, 0, 0, 0, 0]"] ;
449 -> 450 ;
451 [label="X[2] <= 0.765\ngini = 0.188\nsamples = 19\nvalue = [0, 0, 17, 2, 0, 0, 0]"] ;
449 -> 451 ;
452 [label="X[7] <= 0.992\ngini = 0.105\nsamples = 18\nvalue = [0, 0, 17, 1, 0, 0, 0]"] ;
451 -> 452 ;
453 [label="X[2] <= 0.34\ngini = 0.5\nsamples = 2\nvalue = [0, 0, 1, 1, 0, 0, 0]"] ;
452 -> 453 ;
454 [label="gini = 0.0\nsamples = 1\nvalue = [0, 0, 1, 0, 0, 0, 0]"] ;
453 -> 454 ;
455 [label="gini = 0.0\nsamples = 1\nvalue = [0, 0, 0, 1, 0, 0, 0]"] ;
453 -> 455 ;
456 [label="gini = 0.0\nsamples = 16\nvalue = [0, 0, 16, 0, 0, 0, 0]"] ;
452 -> 456 ;
457 [label="gini = 0.0\nsamples = 1\nvalue = [0, 0, 0, 1, 0, 0, 0]"] ;
451 -> 457 ;
458 [label="X[6] <= 112.0\ngini = 0.682\nsamples = 40\nvalue = [0, 0, 7, 15, 15, 3, 0]"] ;
356 -> 458 ;
459 [label="X[8] <= 3.25\ngini = 0.582\nsamples = 19\nvalue = [0, 0, 5, 2, 11, 1, 0]"] ;
458 -> 459 ;
460 [label="X[7] <= 0.992\ngini = 0.617\nsamples = 9\nvalue = [0, 0, 5, 1, 2, 1, 0]"] ;
459 -> 460 ;
461 [label="X[9] <= 0.61\ngini = 0.278\nsamples = 6\nvalue = [0, 0, 5, 1, 0, 0, 0]"] ;
460 -> 461 ;
462 [label="gini = 0.0\nsamples = 1\nvalue = [0, 0, 0, 1, 0, 0, 0]"] ;
461 -> 462 ;
463 [label="gini = 0.0\nsamples = 5\nvalue = [0, 0, 5, 0, 0, 0, 0]"] ;
461 -> 463 ;
464 [label="X[7] <= 0.992\ngini = 0.444\nsamples = 3\nvalue = [0, 0, 0, 0, 2, 1, 0]"] ;
460 -> 464 ;
465 [label="gini = 0.0\nsamples = 2\nvalue = [0, 0, 0, 0, 2, 0, 0]"] ;
464 -> 465 ;
466 [label="gini = 0.0\nsamples = 1\nvalue = [0, 0, 0, 0, 0, 1, 0]"] ;
464 -> 466 ;
467 [label="X[1] <= 0.15\ngini = 0.18\nsamples = 10\nvalue = [0, 0, 0, 1, 9, 0, 0]"] ;
459 -> 467 ;
468 [label="gini = 0.0\nsamples = 1\nvalue = [0, 0, 0, 1, 0, 0, 0]"] ;
467 -> 468 ;
469 [label="gini = 0.0\nsamples = 9\nvalue = [0, 0, 0, 0, 9, 0, 0]"] ;
467 -> 469 ;
470 [label="X[8] <= 3.255\ngini = 0.562\nsamples = 21\nvalue = [0, 0, 2, 13, 4, 2, 0]"] ;
458 -> 470 ;
471 [label="X[4] <= 0.05\ngini = 0.18\nsamples = 10\nvalue = [0, 0, 0, 9, 1, 0, 0]"] ;
470 -> 471 ;
472 [label="gini = 0.0\nsamples = 9\nvalue = [0, 0, 0, 9, 0, 0, 0]"] ;
471 -> 472 ;
473 [label="gini = 0.0\nsamples = 1\nvalue = [0, 0, 0, 0, 1, 0, 0]"] ;
471 -> 473 ;
474 [label="X[0] <= 6.15\ngini = 0.727\nsamples = 11\nvalue = [0, 0, 2, 4, 3, 2, 0]"] ;
470 -> 474 ;
475 [label="X[8] <= 3.625\ngini = 0.32\nsamples = 5\nvalue = [0, 0, 0, 4, 1, 0, 0]"] ;
474 -> 475 ;
476 [label="gini = 0.0\nsamples = 4\nvalue = [0, 0, 0, 4, 0, 0, 0]"] ;
475 -> 476 ;
477 [label="gini = 0.0\nsamples = 1\nvalue = [0, 0, 0, 0, 1, 0, 0]"] ;
475 -> 477 ;
478 [label="X[8] <= 3.265\ngini = 0.667\nsamples = 6\nvalue = [0, 0, 2, 0, 2, 2, 0]"] ;
474 -> 478 ;
479 [label="gini = 0.0\nsamples = 2\nvalue = [0, 0, 0, 0, 2, 0, 0]"] ;
478 -> 479 ;
480 [label="X[9] <= 0.705\ngini = 0.5\nsamples = 4\nvalue = [0, 0, 2, 0, 0, 2, 0]"] ;
478 -> 480 ;
481 [label="gini = 0.0\nsamples = 2\nvalue = [0, 0, 0, 0, 0, 2, 0]"] ;
480 -> 481 ;
482 [label="gini = 0.0\nsamples = 2\nvalue = [0, 0, 2, 0, 0, 0, 0]"] ;
480 -> 482 ;
483 [label="X[1] <= 0.295\ngini = 0.625\nsamples = 507\nvalue = [2, 10, 19, 205, 228, 43, 0]"] ;
1 -> 483 ;
484 [label="X[8] <= 3.275\ngini = 0.631\nsamples = 228\nvalue = [1, 4, 10, 109, 82, 22, 0]"] ;
483 -> 484 ;
485 [label="X[3] <= 2.55\ngini = 0.612\nsamples = 180\nvalue = [0, 4, 7, 96, 54, 19, 0]"] ;
484 -> 485 ;
486 [label="X[6] <= 118.5\ngini = 0.595\nsamples = 25\nvalue = [0, 2, 2, 7, 14, 0, 0]"] ;
485 -> 486 ;
487 [label="X[7] <= 0.991\ngini = 0.41\nsamples = 19\nvalue = [0, 1, 0, 4, 14, 0, 0]"] ;
486 -> 487 ;
488 [label="X[4] <= 0.03\ngini = 0.49\nsamples = 7\nvalue = [0, 0, 0, 4, 3, 0, 0]"] ;
487 -> 488 ;
489 [label="gini = 0.0\nsamples = 3\nvalue = [0, 0, 0, 0, 3, 0, 0]"] ;
488 -> 489 ;
490 [label="gini = 0.0\nsamples = 4\nvalue = [0, 0, 0, 4, 0, 0, 0]"] ;
488 -> 490 ;
491 [label="X[0] <= 6.1\ngini = 0.153\nsamples = 12\nvalue = [0, 1, 0, 0, 11, 0, 0]"] ;
487 -> 491 ;
492 [label="gini = 0.0\nsamples = 1\nvalue = [0, 1, 0, 0, 0, 0, 0]"] ;
491 -> 492 ;
493 [label="gini = 0.0\nsamples = 11\nvalue = [0, 0, 0, 0, 11, 0, 0]"] ;
491 -> 493 ;
494 [label="X[5] <= 27.0\ngini = 0.611\nsamples = 6\nvalue = [0, 1, 2, 3, 0, 0, 0]"] ;
486 -> 494 ;
495 [label="X[8] <= 3.09\ngini = 0.444\nsamples = 3\nvalue = [0, 1, 2, 0, 0, 0, 0]"] ;
494 -> 495 ;
496 [label="gini = 0.0\nsamples = 1\nvalue = [0, 1, 0, 0, 0, 0, 0]"] ;
495 -> 496 ;
497 [label="gini = 0.0\nsamples = 2\nvalue = [0, 0, 2, 0, 0, 0, 0]"] ;
495 -> 497 ;
498 [label="gini = 0.0\nsamples = 3\nvalue = [0, 0, 0, 3, 0, 0, 0]"] ;
494 -> 498 ;
499 [label="X[5] <= 53.0\ngini = 0.587\nsamples = 155\nvalue = [0, 2, 5, 89, 40, 19, 0]"] ;
485 -> 499 ;
500 [label="X[4] <= 0.029\ngini = 0.55\nsamples = 139\nvalue = [0, 1, 5, 85, 36, 12, 0]"] ;
499 -> 500 ;
501 [label="X[8] <= 3.245\ngini = 0.702\nsamples = 28\nvalue = [0, 0, 2, 10, 9, 7, 0]"] ;
500 -> 501 ;
502 [label="X[6] <= 92.5\ngini = 0.699\nsamples = 23\nvalue = [0, 0, 2, 5, 9, 7, 0]"] ;
501 -> 502 ;
503 [label="X[1] <= 0.27\ngini = 0.278\nsamples = 6\nvalue = [0, 0, 1, 0, 5, 0, 0]"] ;
502 -> 503 ;
504 [label="gini = 0.0\nsamples = 5\nvalue = [0, 0, 0, 0, 5, 0, 0]"] ;
503 -> 504 ;
505 [label="gini = 0.0\nsamples = 1\nvalue = [0, 0, 1, 0, 0, 0, 0]"] ;
503 -> 505 ;
506 [label="X[5] <= 42.0\ngini = 0.685\nsamples = 17\nvalue = [0, 0, 1, 5, 4, 7, 0]"] ;
502 -> 506 ;
507 [label="X[5] <= 30.0\ngini = 0.649\nsamples = 15\nvalue = [0, 0, 1, 5, 2, 7, 0]"] ;
506 -> 507 ;
508 [label="X[9] <= 0.46\ngini = 0.694\nsamples = 7\nvalue = [0, 0, 1, 3, 2, 1, 0]"] ;
507 -> 508 ;
509 [label="gini = 0.0\nsamples = 3\nvalue = [0, 0, 0, 3, 0, 0, 0]"] ;
508 -> 509 ;
510 [label="X[4] <= 0.026\ngini = 0.625\nsamples = 4\nvalue = [0, 0, 1, 0, 2, 1, 0]"] ;
508 -> 510 ;
511 [label="gini = 0.0\nsamples = 2\nvalue = [0, 0, 0, 0, 2, 0, 0]"] ;
510 -> 511 ;
512 [label="X[3] <= 4.85\ngini = 0.5\nsamples = 2\nvalue = [0, 0, 1, 0, 0, 1, 0]"] ;
510 -> 512 ;
513 [label="gini = 0.0\nsamples = 1\nvalue = [0, 0, 0, 0, 0, 1, 0]"] ;
512 -> 513 ;
514 [label="gini = 0.0\nsamples = 1\nvalue = [0, 0, 1, 0, 0, 0, 0]"] ;
512 -> 514 ;
515 [label="X[0] <= 6.95\ngini = 0.375\nsamples = 8\nvalue = [0, 0, 0, 2, 0, 6, 0]"] ;
507 -> 515 ;
516 [label="X[9] <= 0.375\ngini = 0.5\nsamples = 4\nvalue = [0, 0, 0, 2, 0, 2, 0]"] ;
515 -> 516 ;
517 [label="gini = 0.0\nsamples = 2\nvalue = [0, 0, 0, 2, 0, 0, 0]"] ;
516 -> 517 ;
518 [label="gini = 0.0\nsamples = 2\nvalue = [0, 0, 0, 0, 0, 2, 0]"] ;
516 -> 518 ;
519 [label="gini = 0.0\nsamples = 4\nvalue = [0, 0, 0, 0, 0, 4, 0]"] ;
515 -> 519 ;
520 [label="gini = 0.0\nsamples = 2\nvalue = [0, 0, 0, 0, 2, 0, 0]"] ;
506 -> 520 ;
521 [label="gini = 0.0\nsamples = 5\nvalue = [0, 0, 0, 5, 0, 0, 0]"] ;
501 -> 521 ;
522 [label="X[5] <= 34.5\ngini = 0.481\nsamples = 111\nvalue = [0, 1, 3, 75, 27, 5, 0]"] ;
500 -> 522 ;
523 [label="X[7] <= 0.991\ngini = 0.367\nsamples = 68\nvalue = [0, 1, 0, 53, 10, 4, 0]"] ;
522 -> 523 ;
524 [label="X[2] <= 0.325\ngini = 0.62\nsamples = 20\nvalue = [0, 0, 0, 10, 6, 4, 0]"] ;
523 -> 524 ;
525 [label="X[3] <= 4.45\ngini = 0.508\nsamples = 16\nvalue = [0, 0, 0, 10, 5, 1, 0]"] ;
524 -> 525 ;
526 [label="X[1] <= 0.285\ngini = 0.18\nsamples = 10\nvalue = [0, 0, 0, 9, 1, 0, 0]"] ;
525 -> 526 ;
527 [label="gini = 0.0\nsamples = 8\nvalue = [0, 0, 0, 8, 0, 0, 0]"] ;
526 -> 527 ;
528 [label="X[7] <= 0.99\ngini = 0.5\nsamples = 2\nvalue = [0, 0, 0, 1, 1, 0, 0]"] ;
526 -> 528 ;
529 [label="gini = 0.0\nsamples = 1\nvalue = [0, 0, 0, 0, 1, 0, 0]"] ;
528 -> 529 ;
530 [label="gini = 0.0\nsamples = 1\nvalue = [0, 0, 0, 1, 0, 0, 0]"] ;
528 -> 530 ;
531 [label="X[3] <= 4.75\ngini = 0.5\nsamples = 6\nvalue = [0, 0, 0, 1, 4, 1, 0]"] ;
525 -> 531 ;
532 [label="gini = 0.0\nsamples = 1\nvalue = [0, 0, 0, 0, 0, 1, 0]"] ;
531 -> 532 ;
533 [label="X[5] <= 20.5\ngini = 0.32\nsamples = 5\nvalue = [0, 0, 0, 1, 4, 0, 0]"] ;
531 -> 533 ;
534 [label="X[1] <= 0.255\ngini = 0.5\nsamples = 2\nvalue = [0, 0, 0, 1, 1, 0, 0]"] ;
533 -> 534 ;
535 [label="gini = 0.0\nsamples = 1\nvalue = [0, 0, 0, 1, 0, 0, 0]"] ;
534 -> 535 ;
536 [label="gini = 0.0\nsamples = 1\nvalue = [0, 0, 0, 0, 1, 0, 0]"] ;
534 -> 536 ;
537 [label="gini = 0.0\nsamples = 3\nvalue = [0, 0, 0, 0, 3, 0, 0]"] ;
533 -> 537 ;
538 [label="X[4] <= 0.032\ngini = 0.375\nsamples = 4\nvalue = [0, 0, 0, 0, 1, 3, 0]"] ;
524 -> 538 ;
539 [label="gini = 0.0\nsamples = 1\nvalue = [0, 0, 0, 0, 1, 0, 0]"] ;
538 -> 539 ;
540 [label="gini = 0.0\nsamples = 3\nvalue = [0, 0, 0, 0, 0, 3, 0]"] ;
538 -> 540 ;
541 [label="X[9] <= 0.315\ngini = 0.19\nsamples = 48\nvalue = [0, 1, 0, 43, 4, 0, 0]"] ;
523 -> 541 ;
542 [label="gini = 0.0\nsamples = 1\nvalue = [0, 1, 0, 0, 0, 0, 0]"] ;
541 -> 542 ;
543 [label="X[7] <= 0.992\ngini = 0.156\nsamples = 47\nvalue = [0, 0, 0, 43, 4, 0, 0]"] ;
541 -> 543 ;
544 [label="X[1] <= 0.285\ngini = 0.122\nsamples = 46\nvalue = [0, 0, 0, 43, 3, 0, 0]"] ;
543 -> 544 ;
545 [label="X[8] <= 2.925\ngini = 0.087\nsamples = 44\nvalue = [0, 0, 0, 42, 2, 0, 0]"] ;
544 -> 545 ;
546 [label="X[9] <= 0.555\ngini = 0.5\nsamples = 2\nvalue = [0, 0, 0, 1, 1, 0, 0]"] ;
545 -> 546 ;
547 [label="gini = 0.0\nsamples = 1\nvalue = [0, 0, 0, 1, 0, 0, 0]"] ;
546 -> 547 ;
548 [label="gini = 0.0\nsamples = 1\nvalue = [0, 0, 0, 0, 1, 0, 0]"] ;
546 -> 548 ;
549 [label="X[4] <= 0.055\ngini = 0.046\nsamples = 42\nvalue = [0, 0, 0, 41, 1, 0, 0]"] ;
545 -> 549 ;
550 [label="gini = 0.0\nsamples = 40\nvalue = [0, 0, 0, 40, 0, 0, 0]"] ;
549 -> 550 ;
551 [label="X[2] <= 0.33\ngini = 0.5\nsamples = 2\nvalue = [0, 0, 0, 1, 1, 0, 0]"] ;
549 -> 551 ;
552 [label="gini = 0.0\nsamples = 1\nvalue = [0, 0, 0, 0, 1, 0, 0]"] ;
551 -> 552 ;
553 [label="gini = 0.0\nsamples = 1\nvalue = [0, 0, 0, 1, 0, 0, 0]"] ;
551 -> 553 ;
554 [label="X[5] <= 26.0\ngini = 0.5\nsamples = 2\nvalue = [0, 0, 0, 1, 1, 0, 0]"] ;
544 -> 554 ;
555 [label="gini = 0.0\nsamples = 1\nvalue = [0, 0, 0, 0, 1, 0, 0]"] ;
554 -> 555 ;
556 [label="gini = 0.0\nsamples = 1\nvalue = [0, 0, 0, 1, 0, 0, 0]"] ;
554 -> 556 ;
557 [label="gini = 0.0\nsamples = 1\nvalue = [0, 0, 0, 0, 1, 0, 0]"] ;
543 -> 557 ;
558 [label="X[1] <= 0.185\ngini = 0.577\nsamples = 43\nvalue = [0, 0, 3, 22, 17, 1, 0]"] ;
522 -> 558 ;
559 [label="gini = 0.0\nsamples = 6\nvalue = [0, 0, 0, 6, 0, 0, 0]"] ;
558 -> 559 ;
560 [label="X[1] <= 0.235\ngini = 0.595\nsamples = 37\nvalue = [0, 0, 3, 16, 17, 1, 0]"] ;
558 -> 560 ;
561 [label="X[9] <= 0.345\ngini = 0.305\nsamples = 16\nvalue = [0, 0, 0, 3, 13, 0, 0]"] ;
560 -> 561 ;
562 [label="gini = 0.0\nsamples = 2\nvalue = [0, 0, 0, 2, 0, 0, 0]"] ;
561 -> 562 ;
563 [label="X[8] <= 3.02\ngini = 0.133\nsamples = 14\nvalue = [0, 0, 0, 1, 13, 0, 0]"] ;
561 -> 563 ;
564 [label="X[4] <= 0.038\ngini = 0.444\nsamples = 3\nvalue = [0, 0, 0, 1, 2, 0, 0]"] ;
563 -> 564 ;
565 [label="gini = 0.0\nsamples = 2\nvalue = [0, 0, 0, 0, 2, 0, 0]"] ;
564 -> 565 ;
566 [label="gini = 0.0\nsamples = 1\nvalue = [0, 0, 0, 1, 0, 0, 0]"] ;
564 -> 566 ;
567 [label="gini = 0.0\nsamples = 11\nvalue = [0, 0, 0, 0, 11, 0, 0]"] ;
563 -> 567 ;
568 [label="X[8] <= 3.2\ngini = 0.558\nsamples = 21\nvalue = [0, 0, 3, 13, 4, 1, 0]"] ;
560 -> 568 ;
569 [label="X[0] <= 6.45\ngini = 0.165\nsamples = 11\nvalue = [0, 0, 0, 10, 1, 0, 0]"] ;
568 -> 569 ;
570 [label="gini = 0.0\nsamples = 1\nvalue = [0, 0, 0, 0, 1, 0, 0]"] ;
569 -> 570 ;
571 [label="gini = 0.0\nsamples = 10\nvalue = [0, 0, 0, 10, 0, 0, 0]"] ;
569 -> 571 ;
572 [label="X[0] <= 6.55\ngini = 0.72\nsamples = 10\nvalue = [0, 0, 3, 3, 3, 1, 0]"] ;
568 -> 572 ;
573 [label="X[9] <= 0.445\ngini = 0.612\nsamples = 7\nvalue = [0, 0, 0, 3, 3, 1, 0]"] ;
572 -> 573 ;
574 [label="gini = 0.0\nsamples = 3\nvalue = [0, 0, 0, 0, 3, 0, 0]"] ;
573 -> 574 ;
575 [label="X[8] <= 3.225\ngini = 0.375\nsamples = 4\nvalue = [0, 0, 0, 3, 0, 1, 0]"] ;
573 -> 575 ;
576 [label="gini = 0.0\nsamples = 1\nvalue = [0, 0, 0, 0, 0, 1, 0]"] ;
575 -> 576 ;
577 [label="gini = 0.0\nsamples = 3\nvalue = [0, 0, 0, 3, 0, 0, 0]"] ;
575 -> 577 ;
578 [label="gini = 0.0\nsamples = 3\nvalue = [0, 0, 3, 0, 0, 0, 0]"] ;
572 -> 578 ;
579 [label="X[3] <= 4.65\ngini = 0.68\nsamples = 16\nvalue = [0, 1, 0, 4, 4, 7, 0]"] ;
499 -> 579 ;
580 [label="X[8] <= 3.205\ngini = 0.688\nsamples = 8\nvalue = [0, 1, 0, 3, 3, 1, 0]"] ;
579 -> 580 ;
581 [label="X[1] <= 0.235\ngini = 0.56\nsamples = 5\nvalue = [0, 1, 0, 0, 3, 1, 0]"] ;
580 -> 581 ;
582 [label="gini = 0.0\nsamples = 3\nvalue = [0, 0, 0, 0, 3, 0, 0]"] ;
581 -> 582 ;
583 [label="X[0] <= 6.25\ngini = 0.5\nsamples = 2\nvalue = [0, 1, 0, 0, 0, 1, 0]"] ;
581 -> 583 ;
584 [label="gini = 0.0\nsamples = 1\nvalue = [0, 1, 0, 0, 0, 0, 0]"] ;
583 -> 584 ;
585 [label="gini = 0.0\nsamples = 1\nvalue = [0, 0, 0, 0, 0, 1, 0]"] ;
583 -> 585 ;
586 [label="gini = 0.0\nsamples = 3\nvalue = [0, 0, 0, 3, 0, 0, 0]"] ;
580 -> 586 ;
587 [label="X[6] <= 185.5\ngini = 0.406\nsamples = 8\nvalue = [0, 0, 0, 1, 1, 6, 0]"] ;
579 -> 587 ;
588 [label="X[2] <= 0.26\ngini = 0.245\nsamples = 7\nvalue = [0, 0, 0, 0, 1, 6, 0]"] ;
587 -> 588 ;
589 [label="gini = 0.0\nsamples = 1\nvalue = [0, 0, 0, 0, 1, 0, 0]"] ;
588 -> 589 ;
590 [label="gini = 0.0\nsamples = 6\nvalue = [0, 0, 0, 0, 0, 6, 0]"] ;
588 -> 590 ;
591 [label="gini = 0.0\nsamples = 1\nvalue = [0, 0, 0, 1, 0, 0, 0]"] ;
587 -> 591 ;
592 [label="X[8] <= 3.51\ngini = 0.578\nsamples = 48\nvalue = [1, 0, 3, 13, 28, 3, 0]"] ;
484 -> 592 ;
593 [label="X[4] <= 0.025\ngini = 0.473\nsamples = 42\nvalue = [0, 0, 1, 12, 28, 1, 0]"] ;
592 -> 593 ;
594 [label="X[2] <= 0.31\ngini = 0.444\nsamples = 3\nvalue = [0, 0, 1, 2, 0, 0, 0]"] ;
593 -> 594 ;
595 [label="gini = 0.0\nsamples = 2\nvalue = [0, 0, 0, 2, 0, 0, 0]"] ;
594 -> 595 ;
596 [label="gini = 0.0\nsamples = 1\nvalue = [0, 0, 1, 0, 0, 0, 0]"] ;
594 -> 596 ;
597 [label="X[4] <= 0.048\ngini = 0.418\nsamples = 39\nvalue = [0, 0, 0, 10, 28, 1, 0]"] ;
593 -> 597 ;
598 [label="X[6] <= 182.0\ngini = 0.38\nsamples = 37\nvalue = [0, 0, 0, 8, 28, 1, 0]"] ;
597 -> 598 ;
599 [label="X[6] <= 85.0\ngini = 0.33\nsamples = 35\nvalue = [0, 0, 0, 6, 28, 1, 0]"] ;
598 -> 599 ;
600 [label="X[2] <= 0.305\ngini = 0.375\nsamples = 4\nvalue = [0, 0, 0, 3, 1, 0, 0]"] ;
599 -> 600 ;
601 [label="gini = 0.0\nsamples = 1\nvalue = [0, 0, 0, 0, 1, 0, 0]"] ;
600 -> 601 ;
602 [label="gini = 0.0\nsamples = 3\nvalue = [0, 0, 0, 3, 0, 0, 0]"] ;
600 -> 602 ;
603 [label="X[2] <= 0.63\ngini = 0.231\nsamples = 31\nvalue = [0, 0, 0, 3, 27, 1, 0]"] ;
599 -> 603 ;
604 [label="X[5] <= 65.5\ngini = 0.184\nsamples = 30\nvalue = [0, 0, 0, 2, 27, 1, 0]"] ;
603 -> 604 ;
605 [label="X[7] <= 0.991\ngini = 0.133\nsamples = 28\nvalue = [0, 0, 0, 2, 26, 0, 0]"] ;
604 -> 605 ;
606 [label="X[7] <= 0.99\ngini = 0.375\nsamples = 8\nvalue = [0, 0, 0, 2, 6, 0, 0]"] ;
605 -> 606 ;
607 [label="gini = 0.0\nsamples = 6\nvalue = [0, 0, 0, 0, 6, 0, 0]"] ;
606 -> 607 ;
608 [label="gini = 0.0\nsamples = 2\nvalue = [0, 0, 0, 2, 0, 0, 0]"] ;
606 -> 608 ;
609 [label="gini = 0.0\nsamples = 20\nvalue = [0, 0, 0, 0, 20, 0, 0]"] ;
605 -> 609 ;
610 [label="X[0] <= 6.25\ngini = 0.5\nsamples = 2\nvalue = [0, 0, 0, 0, 1, 1, 0]"] ;
604 -> 610 ;
611 [label="gini = 0.0\nsamples = 1\nvalue = [0, 0, 0, 0, 0, 1, 0]"] ;
610 -> 611 ;
612 [label="gini = 0.0\nsamples = 1\nvalue = [0, 0, 0, 0, 1, 0, 0]"] ;
610 -> 612 ;
613 [label="gini = 0.0\nsamples = 1\nvalue = [0, 0, 0, 1, 0, 0, 0]"] ;
603 -> 613 ;
614 [label="gini = 0.0\nsamples = 2\nvalue = [0, 0, 0, 2, 0, 0, 0]"] ;
598 -> 614 ;
615 [label="gini = 0.0\nsamples = 2\nvalue = [0, 0, 0, 2, 0, 0, 0]"] ;
597 -> 615 ;
616 [label="X[6] <= 130.0\ngini = 0.722\nsamples = 6\nvalue = [1, 0, 2, 1, 0, 2, 0]"] ;
592 -> 616 ;
617 [label="X[2] <= 0.445\ngini = 0.625\nsamples = 4\nvalue = [1, 0, 0, 1, 0, 2, 0]"] ;
616 -> 617 ;
618 [label="X[8] <= 3.54\ngini = 0.5\nsamples = 2\nvalue = [1, 0, 0, 1, 0, 0, 0]"] ;
617 -> 618 ;
619 [label="gini = 0.0\nsamples = 1\nvalue = [1, 0, 0, 0, 0, 0, 0]"] ;
618 -> 619 ;
620 [label="gini = 0.0\nsamples = 1\nvalue = [0, 0, 0, 1, 0, 0, 0]"] ;
618 -> 620 ;
621 [label="gini = 0.0\nsamples = 2\nvalue = [0, 0, 0, 0, 0, 2, 0]"] ;
617 -> 621 ;
622 [label="gini = 0.0\nsamples = 2\nvalue = [0, 0, 2, 0, 0, 0, 0]"] ;
616 -> 622 ;
623 [label="X[6] <= 159.5\ngini = 0.601\nsamples = 279\nvalue = [1, 6, 9, 96, 146, 21, 0]"] ;
483 -> 623 ;
624 [label="X[5] <= 21.5\ngini = 0.59\nsamples = 262\nvalue = [1, 6, 8, 83, 144, 20, 0]"] ;
623 -> 624 ;
625 [label="X[5] <= 8.5\ngini = 0.66\nsamples = 72\nvalue = [1, 6, 3, 32, 26, 4, 0]"] ;
624 -> 625 ;
626 [label="X[2] <= 0.26\ngini = 0.667\nsamples = 9\nvalue = [1, 4, 0, 3, 0, 1, 0]"] ;
625 -> 626 ;
627 [label="gini = 0.0\nsamples = 3\nvalue = [0, 3, 0, 0, 0, 0, 0]"] ;
626 -> 627 ;
628 [label="X[2] <= 0.355\ngini = 0.667\nsamples = 6\nvalue = [1, 1, 0, 3, 0, 1, 0]"] ;
626 -> 628 ;
629 [label="gini = 0.0\nsamples = 3\nvalue = [0, 0, 0, 3, 0, 0, 0]"] ;
628 -> 629 ;
630 [label="X[3] <= 4.8\ngini = 0.667\nsamples = 3\nvalue = [1, 1, 0, 0, 0, 1, 0]"] ;
628 -> 630 ;
631 [label="gini = 0.0\nsamples = 1\nvalue = [1, 0, 0, 0, 0, 0, 0]"] ;
630 -> 631 ;
632 [label="X[3] <= 5.55\ngini = 0.5\nsamples = 2\nvalue = [0, 1, 0, 0, 0, 1, 0]"] ;
630 -> 632 ;
633 [label="gini = 0.0\nsamples = 1\nvalue = [0, 1, 0, 0, 0, 0, 0]"] ;
632 -> 633 ;
634 [label="gini = 0.0\nsamples = 1\nvalue = [0, 0, 0, 0, 0, 1, 0]"] ;
632 -> 634 ;
635 [label="X[9] <= 0.345\ngini = 0.612\nsamples = 63\nvalue = [0, 2, 3, 29, 26, 3, 0]"] ;
625 -> 635 ;
636 [label="X[4] <= 0.032\ngini = 0.49\nsamples = 7\nvalue = [0, 0, 0, 0, 4, 3, 0]"] ;
635 -> 636 ;
637 [label="gini = 0.0\nsamples = 3\nvalue = [0, 0, 0, 0, 3, 0, 0]"] ;
636 -> 637 ;
638 [label="X[7] <= 0.991\ngini = 0.375\nsamples = 4\nvalue = [0, 0, 0, 0, 1, 3, 0]"] ;
636 -> 638 ;
639 [label="gini = 0.0\nsamples = 3\nvalue = [0, 0, 0, 0, 0, 3, 0]"] ;
638 -> 639 ;
640 [label="gini = 0.0\nsamples = 1\nvalue = [0, 0, 0, 0, 1, 0, 0]"] ;
638 -> 640 ;
641 [label="X[6] <= 83.0\ngini = 0.573\nsamples = 56\nvalue = [0, 2, 3, 29, 22, 0, 0]"] ;
635 -> 641 ;
642 [label="X[1] <= 0.557\ngini = 0.556\nsamples = 13\nvalue = [0, 1, 1, 3, 8, 0, 0]"] ;
641 -> 642 ;
643 [label="X[2] <= 0.345\ngini = 0.446\nsamples = 11\nvalue = [0, 1, 1, 1, 8, 0, 0]"] ;
642 -> 643 ;
644 [label="gini = 0.0\nsamples = 8\nvalue = [0, 0, 0, 0, 8, 0, 0]"] ;
643 -> 644 ;
645 [label="X[4] <= 0.032\ngini = 0.667\nsamples = 3\nvalue = [0, 1, 1, 1, 0, 0, 0]"] ;
643 -> 645 ;
646 [label="gini = 0.0\nsamples = 1\nvalue = [0, 0, 0, 1, 0, 0, 0]"] ;
645 -> 646 ;
647 [label="X[7] <= 0.991\ngini = 0.5\nsamples = 2\nvalue = [0, 1, 1, 0, 0, 0, 0]"] ;
645 -> 647 ;
648 [label="gini = 0.0\nsamples = 1\nvalue = [0, 1, 0, 0, 0, 0, 0]"] ;
647 -> 648 ;
649 [label="gini = 0.0\nsamples = 1\nvalue = [0, 0, 1, 0, 0, 0, 0]"] ;
647 -> 649 ;
650 [label="gini = 0.0\nsamples = 2\nvalue = [0, 0, 0, 2, 0, 0, 0]"] ;
642 -> 650 ;
651 [label="X[0] <= 8.4\ngini = 0.526\nsamples = 43\nvalue = [0, 1, 2, 26, 14, 0, 0]"] ;
641 -> 651 ;
652 [label="X[8] <= 3.16\ngini = 0.471\nsamples = 40\nvalue = [0, 1, 0, 26, 13, 0, 0]"] ;
651 -> 652 ;
653 [label="gini = 0.0\nsamples = 9\nvalue = [0, 0, 0, 9, 0, 0, 0]"] ;
652 -> 653 ;
654 [label="X[3] <= 2.75\ngini = 0.522\nsamples = 31\nvalue = [0, 1, 0, 17, 13, 0, 0]"] ;
652 -> 654 ;
655 [label="gini = 0.0\nsamples = 5\nvalue = [0, 0, 0, 0, 5, 0, 0]"] ;
654 -> 655 ;
656 [label="X[4] <= 0.035\ngini = 0.476\nsamples = 26\nvalue = [0, 1, 0, 17, 8, 0, 0]"] ;
654 -> 656 ;
657 [label="X[9] <= 0.75\ngini = 0.395\nsamples = 20\nvalue = [0, 1, 0, 15, 4, 0, 0]"] ;
656 -> 657 ;
658 [label="X[7] <= 0.992\ngini = 0.278\nsamples = 18\nvalue = [0, 0, 0, 15, 3, 0, 0]"] ;
657 -> 658 ;
659 [label="X[9] <= 0.41\ngini = 0.208\nsamples = 17\nvalue = [0, 0, 0, 15, 2, 0, 0]"] ;
658 -> 659 ;
660 [label="gini = 0.0\nsamples = 1\nvalue = [0, 0, 0, 0, 1, 0, 0]"] ;
659 -> 660 ;
661 [label="X[1] <= 0.438\ngini = 0.117\nsamples = 16\nvalue = [0, 0, 0, 15, 1, 0, 0]"] ;
659 -> 661 ;
662 [label="gini = 0.0\nsamples = 13\nvalue = [0, 0, 0, 13, 0, 0, 0]"] ;
661 -> 662 ;
663 [label="X[1] <= 0.45\ngini = 0.444\nsamples = 3\nvalue = [0, 0, 0, 2, 1, 0, 0]"] ;
661 -> 663 ;
664 [label="gini = 0.0\nsamples = 1\nvalue = [0, 0, 0, 0, 1, 0, 0]"] ;
663 -> 664 ;
665 [label="gini = 0.0\nsamples = 2\nvalue = [0, 0, 0, 2, 0, 0, 0]"] ;
663 -> 665 ;
666 [label="gini = 0.0\nsamples = 1\nvalue = [0, 0, 0, 0, 1, 0, 0]"] ;
658 -> 666 ;
667 [label="X[0] <= 5.95\ngini = 0.5\nsamples = 2\nvalue = [0, 1, 0, 0, 1, 0, 0]"] ;
657 -> 667 ;
668 [label="gini = 0.0\nsamples = 1\nvalue = [0, 0, 0, 0, 1, 0, 0]"] ;
667 -> 668 ;
669 [label="gini = 0.0\nsamples = 1\nvalue = [0, 1, 0, 0, 0, 0, 0]"] ;
667 -> 669 ;
670 [label="X[2] <= 0.3\ngini = 0.444\nsamples = 6\nvalue = [0, 0, 0, 2, 4, 0, 0]"] ;
656 -> 670 ;
671 [label="X[3] <= 4.15\ngini = 0.444\nsamples = 3\nvalue = [0, 0, 0, 2, 1, 0, 0]"] ;
670 -> 671 ;
672 [label="gini = 0.0\nsamples = 1\nvalue = [0, 0, 0, 0, 1, 0, 0]"] ;
671 -> 672 ;
673 [label="gini = 0.0\nsamples = 2\nvalue = [0, 0, 0, 2, 0, 0, 0]"] ;
671 -> 673 ;
674 [label="gini = 0.0\nsamples = 3\nvalue = [0, 0, 0, 0, 3, 0, 0]"] ;
670 -> 674 ;
675 [label="X[1] <= 0.408\ngini = 0.444\nsamples = 3\nvalue = [0, 0, 2, 0, 1, 0, 0]"] ;
651 -> 675 ;
676 [label="gini = 0.0\nsamples = 1\nvalue = [0, 0, 0, 0, 1, 0, 0]"] ;
675 -> 676 ;
677 [label="gini = 0.0\nsamples = 2\nvalue = [0, 0, 2, 0, 0, 0, 0]"] ;
675 -> 677 ;
678 [label="X[9] <= 0.415\ngini = 0.534\nsamples = 190\nvalue = [0, 0, 5, 51, 118, 16, 0]"] ;
624 -> 678 ;
679 [label="X[2] <= 0.285\ngini = 0.625\nsamples = 68\nvalue = [0, 0, 5, 28, 30, 5, 0]"] ;
678 -> 679 ;
680 [label="X[1] <= 0.543\ngini = 0.619\nsamples = 38\nvalue = [0, 0, 5, 20, 11, 2, 0]"] ;
679 -> 680 ;
681 [label="X[4] <= 0.034\ngini = 0.588\nsamples = 36\nvalue = [0, 0, 3, 20, 11, 2, 0]"] ;
680 -> 681 ;
682 [label="X[7] <= 0.992\ngini = 0.367\nsamples = 14\nvalue = [0, 0, 1, 11, 1, 1, 0]"] ;
681 -> 682 ;
683 [label="X[4] <= 0.018\ngini = 0.272\nsamples = 13\nvalue = [0, 0, 1, 11, 0, 1, 0]"] ;
682 -> 683 ;
684 [label="gini = 0.0\nsamples = 1\nvalue = [0, 0, 1, 0, 0, 0, 0]"] ;
683 -> 684 ;
685 [label="X[1] <= 0.31\ngini = 0.153\nsamples = 12\nvalue = [0, 0, 0, 11, 0, 1, 0]"] ;
683 -> 685 ;
686 [label="gini = 0.0\nsamples = 1\nvalue = [0, 0, 0, 0, 0, 1, 0]"] ;
685 -> 686 ;
687 [label="gini = 0.0\nsamples = 11\nvalue = [0, 0, 0, 11, 0, 0, 0]"] ;
685 -> 687 ;
688 [label="gini = 0.0\nsamples = 1\nvalue = [0, 0, 0, 0, 1, 0, 0]"] ;
682 -> 688 ;
689 [label="X[8] <= 3.215\ngini = 0.616\nsamples = 22\nvalue = [0, 0, 2, 9, 10, 1, 0]"] ;
681 -> 689 ;
690 [label="X[8] <= 2.965\ngini = 0.48\nsamples = 10\nvalue = [0, 0, 1, 1, 7, 1, 0]"] ;
689 -> 690 ;
691 [label="X[1] <= 0.395\ngini = 0.5\nsamples = 2\nvalue = [0, 0, 0, 1, 0, 1, 0]"] ;
690 -> 691 ;
692 [label="gini = 0.0\nsamples = 1\nvalue = [0, 0, 0, 1, 0, 0, 0]"] ;
691 -> 692 ;
693 [label="gini = 0.0\nsamples = 1\nvalue = [0, 0, 0, 0, 0, 1, 0]"] ;
691 -> 693 ;
694 [label="X[1] <= 0.32\ngini = 0.219\nsamples = 8\nvalue = [0, 0, 1, 0, 7, 0, 0]"] ;
690 -> 694 ;
695 [label="gini = 0.0\nsamples = 1\nvalue = [0, 0, 1, 0, 0, 0, 0]"] ;
694 -> 695 ;
696 [label="gini = 0.0\nsamples = 7\nvalue = [0, 0, 0, 0, 7, 0, 0]"] ;
694 -> 696 ;
697 [label="X[1] <= 0.37\ngini = 0.486\nsamples = 12\nvalue = [0, 0, 1, 8, 3, 0, 0]"] ;
689 -> 697 ;
698 [label="X[0] <= 6.75\ngini = 0.219\nsamples = 8\nvalue = [0, 0, 0, 7, 1, 0, 0]"] ;
697 -> 698 ;
699 [label="gini = 0.0\nsamples = 7\nvalue = [0, 0, 0, 7, 0, 0, 0]"] ;
698 -> 699 ;
700 [label="gini = 0.0\nsamples = 1\nvalue = [0, 0, 0, 0, 1, 0, 0]"] ;
698 -> 700 ;
701 [label="X[3] <= 4.95\ngini = 0.625\nsamples = 4\nvalue = [0, 0, 1, 1, 2, 0, 0]"] ;
697 -> 701 ;
702 [label="X[8] <= 3.285\ngini = 0.5\nsamples = 2\nvalue = [0, 0, 1, 1, 0, 0, 0]"] ;
701 -> 702 ;
703 [label="gini = 0.0\nsamples = 1\nvalue = [0, 0, 1, 0, 0, 0, 0]"] ;
702 -> 703 ;
704 [label="gini = 0.0\nsamples = 1\nvalue = [0, 0, 0, 1, 0, 0, 0]"] ;
702 -> 704 ;
705 [label="gini = 0.0\nsamples = 2\nvalue = [0, 0, 0, 0, 2, 0, 0]"] ;
701 -> 705 ;
706 [label="gini = 0.0\nsamples = 2\nvalue = [0, 0, 2, 0, 0, 0, 0]"] ;
680 -> 706 ;
707 [label="X[5] <= 46.5\ngini = 0.518\nsamples = 30\nvalue = [0, 0, 0, 8, 19, 3, 0]"] ;
679 -> 707 ;
708 [label="X[5] <= 27.5\ngini = 0.429\nsamples = 26\nvalue = [0, 0, 0, 4, 19, 3, 0]"] ;
707 -> 708 ;
709 [label="gini = 0.0\nsamples = 2\nvalue = [0, 0, 0, 2, 0, 0, 0]"] ;
708 -> 709 ;
710 [label="X[2] <= 0.455\ngini = 0.351\nsamples = 24\nvalue = [0, 0, 0, 2, 19, 3, 0]"] ;
708 -> 710 ;
711 [label="X[9] <= 0.405\ngini = 0.299\nsamples = 23\nvalue = [0, 0, 0, 1, 19, 3, 0]"] ;
710 -> 711 ;
712 [label="X[8] <= 2.975\ngini = 0.236\nsamples = 22\nvalue = [0, 0, 0, 0, 19, 3, 0]"] ;
711 -> 712 ;
713 [label="gini = 0.0\nsamples = 1\nvalue = [0, 0, 0, 0, 0, 1, 0]"] ;
712 -> 713 ;
714 [label="X[3] <= 7.175\ngini = 0.172\nsamples = 21\nvalue = [0, 0, 0, 0, 19, 2, 0]"] ;
712 -> 714 ;
715 [label="gini = 0.0\nsamples = 16\nvalue = [0, 0, 0, 0, 16, 0, 0]"] ;
714 -> 715 ;
716 [label="X[2] <= 0.33\ngini = 0.48\nsamples = 5\nvalue = [0, 0, 0, 0, 3, 2, 0]"] ;
714 -> 716 ;
717 [label="gini = 0.0\nsamples = 3\nvalue = [0, 0, 0, 0, 3, 0, 0]"] ;
716 -> 717 ;
718 [label="gini = 0.0\nsamples = 2\nvalue = [0, 0, 0, 0, 0, 2, 0]"] ;
716 -> 718 ;
719 [label="gini = 0.0\nsamples = 1\nvalue = [0, 0, 0, 1, 0, 0, 0]"] ;
711 -> 719 ;
720 [label="gini = 0.0\nsamples = 1\nvalue = [0, 0, 0, 1, 0, 0, 0]"] ;
710 -> 720 ;
721 [label="gini = 0.0\nsamples = 4\nvalue = [0, 0, 0, 4, 0, 0, 0]"] ;
707 -> 721 ;
722 [label="X[4] <= 0.045\ngini = 0.436\nsamples = 122\nvalue = [0, 0, 0, 23, 88, 11, 0]"] ;
678 -> 722 ;
723 [label="X[2] <= 0.265\ngini = 0.381\nsamples = 112\nvalue = [0, 0, 0, 17, 86, 9, 0]"] ;
722 -> 723 ;
724 [label="X[7] <= 0.991\ngini = 0.525\nsamples = 32\nvalue = [0, 0, 0, 11, 19, 2, 0]"] ;
723 -> 724 ;
725 [label="X[5] <= 23.5\ngini = 0.364\nsamples = 18\nvalue = [0, 0, 0, 3, 14, 1, 0]"] ;
724 -> 725 ;
726 [label="X[7] <= 0.99\ngini = 0.5\nsamples = 2\nvalue = [0, 0, 0, 1, 0, 1, 0]"] ;
725 -> 726 ;
727 [label="gini = 0.0\nsamples = 1\nvalue = [0, 0, 0, 1, 0, 0, 0]"] ;
726 -> 727 ;
728 [label="gini = 0.0\nsamples = 1\nvalue = [0, 0, 0, 0, 0, 1, 0]"] ;
726 -> 728 ;
729 [label="X[3] <= 3.0\ngini = 0.219\nsamples = 16\nvalue = [0, 0, 0, 2, 14, 0, 0]"] ;
725 -> 729 ;
730 [label="X[5] <= 26.5\ngini = 0.5\nsamples = 4\nvalue = [0, 0, 0, 2, 2, 0, 0]"] ;
729 -> 730 ;
731 [label="gini = 0.0\nsamples = 2\nvalue = [0, 0, 0, 0, 2, 0, 0]"] ;
730 -> 731 ;
732 [label="gini = 0.0\nsamples = 2\nvalue = [0, 0, 0, 2, 0, 0, 0]"] ;
730 -> 732 ;
733 [label="gini = 0.0\nsamples = 12\nvalue = [0, 0, 0, 0, 12, 0, 0]"] ;
729 -> 733 ;
734 [label="X[5] <= 44.0\ngini = 0.541\nsamples = 14\nvalue = [0, 0, 0, 8, 5, 1, 0]"] ;
724 -> 734 ;
735 [label="X[0] <= 6.5\ngini = 0.43\nsamples = 11\nvalue = [0, 0, 0, 8, 2, 1, 0]"] ;
734 -> 735 ;
736 [label="gini = 0.0\nsamples = 7\nvalue = [0, 0, 0, 7, 0, 0, 0]"] ;
735 -> 736 ;
737 [label="X[1] <= 0.385\ngini = 0.625\nsamples = 4\nvalue = [0, 0, 0, 1, 2, 1, 0]"] ;
735 -> 737 ;
738 [label="gini = 0.0\nsamples = 2\nvalue = [0, 0, 0, 0, 2, 0, 0]"] ;
737 -> 738 ;
739 [label="X[3] <= 3.575\ngini = 0.5\nsamples = 2\nvalue = [0, 0, 0, 1, 0, 1, 0]"] ;
737 -> 739 ;
740 [label="gini = 0.0\nsamples = 1\nvalue = [0, 0, 0, 0, 0, 1, 0]"] ;
739 -> 740 ;
741 [label="gini = 0.0\nsamples = 1\nvalue = [0, 0, 0, 1, 0, 0, 0]"] ;
739 -> 741 ;
742 [label="gini = 0.0\nsamples = 3\nvalue = [0, 0, 0, 0, 3, 0, 0]"] ;
734 -> 742 ;
743 [label="X[7] <= 0.991\ngini = 0.285\nsamples = 80\nvalue = [0, 0, 0, 6, 67, 7, 0]"] ;
723 -> 743 ;
744 [label="X[7] <= 0.99\ngini = 0.512\nsamples = 26\nvalue = [0, 0, 0, 4, 17, 5, 0]"] ;
743 -> 744 ;
745 [label="X[9] <= 0.55\ngini = 0.335\nsamples = 20\nvalue = [0, 0, 0, 1, 16, 3, 0]"] ;
744 -> 745 ;
746 [label="gini = 0.0\nsamples = 12\nvalue = [0, 0, 0, 0, 12, 0, 0]"] ;
745 -> 746 ;
747 [label="X[8] <= 3.215\ngini = 0.594\nsamples = 8\nvalue = [0, 0, 0, 1, 4, 3, 0]"] ;
745 -> 747 ;
748 [label="X[3] <= 3.95\ngini = 0.375\nsamples = 4\nvalue = [0, 0, 0, 1, 0, 3, 0]"] ;
747 -> 748 ;
749 [label="gini = 0.0\nsamples = 1\nvalue = [0, 0, 0, 1, 0, 0, 0]"] ;
748 -> 749 ;
750 [label="gini = 0.0\nsamples = 3\nvalue = [0, 0, 0, 0, 0, 3, 0]"] ;
748 -> 750 ;
751 [label="gini = 0.0\nsamples = 4\nvalue = [0, 0, 0, 0, 4, 0, 0]"] ;
747 -> 751 ;
752 [label="X[9] <= 0.505\ngini = 0.611\nsamples = 6\nvalue = [0, 0, 0, 3, 1, 2, 0]"] ;
744 -> 752 ;
753 [label="gini = 0.0\nsamples = 3\nvalue = [0, 0, 0, 3, 0, 0, 0]"] ;
752 -> 753 ;
754 [label="X[6] <= 95.5\ngini = 0.444\nsamples = 3\nvalue = [0, 0, 0, 0, 1, 2, 0]"] ;
752 -> 754 ;
755 [label="gini = 0.0\nsamples = 1\nvalue = [0, 0, 0, 0, 1, 0, 0]"] ;
754 -> 755 ;
756 [label="gini = 0.0\nsamples = 2\nvalue = [0, 0, 0, 0, 0, 2, 0]"] ;
754 -> 756 ;
757 [label="X[8] <= 3.205\ngini = 0.14\nsamples = 54\nvalue = [0, 0, 0, 2, 50, 2, 0]"] ;
743 -> 757 ;
758 [label="gini = 0.0\nsamples = 27\nvalue = [0, 0, 0, 0, 27, 0, 0]"] ;
757 -> 758 ;
759 [label="X[8] <= 3.215\ngini = 0.263\nsamples = 27\nvalue = [0, 0, 0, 2, 23, 2, 0]"] ;
757 -> 759 ;
760 [label="gini = 0.0\nsamples = 1\nvalue = [0, 0, 0, 0, 0, 1, 0]"] ;
759 -> 760 ;
761 [label="X[4] <= 0.035\ngini = 0.21\nsamples = 26\nvalue = [0, 0, 0, 2, 23, 1, 0]"] ;
759 -> 761 ;
762 [label="X[6] <= 104.0\ngini = 0.1\nsamples = 19\nvalue = [0, 0, 0, 0, 18, 1, 0]"] ;
761 -> 762 ;
763 [label="X[5] <= 33.0\ngini = 0.32\nsamples = 5\nvalue = [0, 0, 0, 0, 4, 1, 0]"] ;
762 -> 763 ;
764 [label="gini = 0.0\nsamples = 4\nvalue = [0, 0, 0, 0, 4, 0, 0]"] ;
763 -> 764 ;
765 [label="gini = 0.0\nsamples = 1\nvalue = [0, 0, 0, 0, 0, 1, 0]"] ;
763 -> 765 ;
766 [label="gini = 0.0\nsamples = 14\nvalue = [0, 0, 0, 0, 14, 0, 0]"] ;
762 -> 766 ;
767 [label="X[4] <= 0.037\ngini = 0.408\nsamples = 7\nvalue = [0, 0, 0, 2, 5, 0, 0]"] ;
761 -> 767 ;
768 [label="gini = 0.0\nsamples = 2\nvalue = [0, 0, 0, 2, 0, 0, 0]"] ;
767 -> 768 ;
769 [label="gini = 0.0\nsamples = 5\nvalue = [0, 0, 0, 0, 5, 0, 0]"] ;
767 -> 769 ;
770 [label="X[6] <= 152.0\ngini = 0.56\nsamples = 10\nvalue = [0, 0, 0, 6, 2, 2, 0]"] ;
722 -> 770 ;
771 [label="X[6] <= 140.5\ngini = 0.375\nsamples = 8\nvalue = [0, 0, 0, 6, 0, 2, 0]"] ;
770 -> 771 ;
772 [label="X[8] <= 3.3\ngini = 0.444\nsamples = 3\nvalue = [0, 0, 0, 1, 0, 2, 0]"] ;
771 -> 772 ;
773 [label="gini = 0.0\nsamples = 2\nvalue = [0, 0, 0, 0, 0, 2, 0]"] ;
772 -> 773 ;
774 [label="gini = 0.0\nsamples = 1\nvalue = [0, 0, 0, 1, 0, 0, 0]"] ;
772 -> 774 ;
775 [label="gini = 0.0\nsamples = 5\nvalue = [0, 0, 0, 5, 0, 0, 0]"] ;
771 -> 775 ;
776 [label="gini = 0.0\nsamples = 2\nvalue = [0, 0, 0, 0, 2, 0, 0]"] ;
770 -> 776 ;
777 [label="X[0] <= 5.8\ngini = 0.394\nsamples = 17\nvalue = [0, 0, 1, 13, 2, 1, 0]"] ;
623 -> 777 ;
778 [label="X[4] <= 0.031\ngini = 0.625\nsamples = 4\nvalue = [0, 0, 1, 0, 2, 1, 0]"] ;
777 -> 778 ;
779 [label="gini = 0.0\nsamples = 2\nvalue = [0, 0, 0, 0, 2, 0, 0]"] ;
778 -> 779 ;
780 [label="X[9] <= 0.455\ngini = 0.5\nsamples = 2\nvalue = [0, 0, 1, 0, 0, 1, 0]"] ;
778 -> 780 ;
781 [label="gini = 0.0\nsamples = 1\nvalue = [0, 0, 1, 0, 0, 0, 0]"] ;
780 -> 781 ;
782 [label="gini = 0.0\nsamples = 1\nvalue = [0, 0, 0, 0, 0, 1, 0]"] ;
780 -> 782 ;
783 [label="gini = 0.0\nsamples = 13\nvalue = [0, 0, 0, 13, 0, 0, 0]"] ;
777 -> 783 ;
784 [label="X[1] <= 0.237\ngini = 0.642\nsamples = 2648\nvalue = [12, 108, 1025, 1170, 281, 51, 1]"] ;
0 -> 784 [labeldistance=2.5, labelangle=-45, headlabel="False"] ;
785 [label="X[9] <= 0.485\ngini = 0.618\nsamples = 947\nvalue = [2, 19, 211, 518, 168, 29, 0]"] ;
784 -> 785 ;
786 [label="X[8] <= 2.985\ngini = 0.652\nsamples = 511\nvalue = [1, 9, 143, 250, 86, 22, 0]"] ;
785 -> 786 ;
787 [label="X[7] <= 0.998\ngini = 0.731\nsamples = 78\nvalue = [0, 3, 24, 21, 24, 6, 0]"] ;
786 -> 787 ;
788 [label="X[4] <= 0.053\ngini = 0.62\nsamples = 43\nvalue = [0, 3, 19, 18, 3, 0, 0]"] ;
787 -> 788 ;
789 [label="X[9] <= 0.395\ngini = 0.604\nsamples = 30\nvalue = [0, 3, 17, 7, 3, 0, 0]"] ;
788 -> 789 ;
790 [label="X[6] <= 93.0\ngini = 0.693\nsamples = 19\nvalue = [0, 3, 7, 7, 2, 0, 0]"] ;
789 -> 790 ;
791 [label="gini = 0.0\nsamples = 5\nvalue = [0, 0, 5, 0, 0, 0, 0]"] ;
790 -> 791 ;
792 [label="X[8] <= 2.955\ngini = 0.663\nsamples = 14\nvalue = [0, 3, 2, 7, 2, 0, 0]"] ;
790 -> 792 ;
793 [label="X[2] <= 0.425\ngini = 0.42\nsamples = 10\nvalue = [0, 3, 0, 7, 0, 0, 0]"] ;
792 -> 793 ;
794 [label="X[8] <= 2.855\ngini = 0.219\nsamples = 8\nvalue = [0, 1, 0, 7, 0, 0, 0]"] ;
793 -> 794 ;
795 [label="gini = 0.0\nsamples = 1\nvalue = [0, 1, 0, 0, 0, 0, 0]"] ;
794 -> 795 ;
796 [label="gini = 0.0\nsamples = 7\nvalue = [0, 0, 0, 7, 0, 0, 0]"] ;
794 -> 796 ;
797 [label="gini = 0.0\nsamples = 2\nvalue = [0, 2, 0, 0, 0, 0, 0]"] ;
793 -> 797 ;
798 [label="X[1] <= 0.215\ngini = 0.5\nsamples = 4\nvalue = [0, 0, 2, 0, 2, 0, 0]"] ;
792 -> 798 ;
799 [label="gini = 0.0\nsamples = 2\nvalue = [0, 0, 2, 0, 0, 0, 0]"] ;
798 -> 799 ;
800 [label="gini = 0.0\nsamples = 2\nvalue = [0, 0, 0, 0, 2, 0, 0]"] ;
798 -> 800 ;
801 [label="X[8] <= 2.975\ngini = 0.165\nsamples = 11\nvalue = [0, 0, 10, 0, 1, 0, 0]"] ;
789 -> 801 ;
802 [label="gini = 0.0\nsamples = 10\nvalue = [0, 0, 10, 0, 0, 0, 0]"] ;
801 -> 802 ;
803 [label="gini = 0.0\nsamples = 1\nvalue = [0, 0, 0, 0, 1, 0, 0]"] ;
801 -> 803 ;
804 [label="X[0] <= 6.4\ngini = 0.26\nsamples = 13\nvalue = [0, 0, 2, 11, 0, 0, 0]"] ;
788 -> 804 ;
805 [label="gini = 0.0\nsamples = 2\nvalue = [0, 0, 2, 0, 0, 0, 0]"] ;
804 -> 805 ;
806 [label="gini = 0.0\nsamples = 11\nvalue = [0, 0, 0, 11, 0, 0, 0]"] ;
804 -> 806 ;
807 [label="X[1] <= 0.18\ngini = 0.583\nsamples = 35\nvalue = [0, 0, 5, 3, 21, 6, 0]"] ;
787 -> 807 ;
808 [label="X[2] <= 0.26\ngini = 0.18\nsamples = 20\nvalue = [0, 0, 0, 2, 18, 0, 0]"] ;
807 -> 808 ;
809 [label="gini = 0.0\nsamples = 2\nvalue = [0, 0, 0, 2, 0, 0, 0]"] ;
808 -> 809 ;
810 [label="gini = 0.0\nsamples = 18\nvalue = [0, 0, 0, 0, 18, 0, 0]"] ;
808 -> 810 ;
811 [label="X[3] <= 14.0\ngini = 0.684\nsamples = 15\nvalue = [0, 0, 5, 1, 3, 6, 0]"] ;
807 -> 811 ;
812 [label="gini = 0.0\nsamples = 6\nvalue = [0, 0, 0, 0, 0, 6, 0]"] ;
811 -> 812 ;
813 [label="X[3] <= 14.35\ngini = 0.568\nsamples = 9\nvalue = [0, 0, 5, 1, 3, 0, 0]"] ;
811 -> 813 ;
814 [label="X[6] <= 179.0\ngini = 0.375\nsamples = 4\nvalue = [0, 0, 0, 1, 3, 0, 0]"] ;
813 -> 814 ;
815 [label="gini = 0.0\nsamples = 1\nvalue = [0, 0, 0, 1, 0, 0, 0]"] ;
814 -> 815 ;
816 [label="gini = 0.0\nsamples = 3\nvalue = [0, 0, 0, 0, 3, 0, 0]"] ;
814 -> 816 ;
817 [label="gini = 0.0\nsamples = 5\nvalue = [0, 0, 5, 0, 0, 0, 0]"] ;
813 -> 817 ;
818 [label="X[6] <= 212.25\ngini = 0.623\nsamples = 433\nvalue = [1, 6, 119, 229, 62, 16, 0]"] ;
786 -> 818 ;
819 [label="X[7] <= 1.0\ngini = 0.617\nsamples = 425\nvalue = [1, 6, 119, 226, 62, 11, 0]"] ;
818 -> 819 ;
820 [label="X[3] <= 12.25\ngini = 0.614\nsamples = 420\nvalue = [1, 6, 114, 226, 62, 11, 0]"] ;
819 -> 820 ;
821 [label="X[4] <= 0.039\ngini = 0.645\nsamples = 322\nvalue = [1, 5, 93, 158, 56, 9, 0]"] ;
820 -> 821 ;
822 [label="X[3] <= 9.275\ngini = 0.688\nsamples = 100\nvalue = [0, 2, 20, 44, 27, 7, 0]"] ;
821 -> 822 ;
823 [label="X[6] <= 77.0\ngini = 0.634\nsamples = 67\nvalue = [0, 2, 15, 36, 10, 4, 0]"] ;
822 -> 823 ;
824 [label="gini = 0.0\nsamples = 5\nvalue = [0, 0, 5, 0, 0, 0, 0]"] ;
823 -> 824 ;
825 [label="X[5] <= 15.5\ngini = 0.606\nsamples = 62\nvalue = [0, 2, 10, 36, 10, 4, 0]"] ;
823 -> 825 ;
826 [label="X[3] <= 3.8\ngini = 0.72\nsamples = 5\nvalue = [0, 1, 1, 0, 1, 2, 0]"] ;
825 -> 826 ;
827 [label="X[7] <= 0.993\ngini = 0.5\nsamples = 2\nvalue = [0, 1, 1, 0, 0, 0, 0]"] ;
826 -> 827 ;
828 [label="gini = 0.0\nsamples = 1\nvalue = [0, 0, 1, 0, 0, 0, 0]"] ;
827 -> 828 ;
829 [label="gini = 0.0\nsamples = 1\nvalue = [0, 1, 0, 0, 0, 0, 0]"] ;
827 -> 829 ;
830 [label="X[2] <= 0.425\ngini = 0.444\nsamples = 3\nvalue = [0, 0, 0, 0, 1, 2, 0]"] ;
826 -> 830 ;
831 [label="gini = 0.0\nsamples = 2\nvalue = [0, 0, 0, 0, 0, 2, 0]"] ;
830 -> 831 ;
832 [label="gini = 0.0\nsamples = 1\nvalue = [0, 0, 0, 0, 1, 0, 0]"] ;
830 -> 832 ;
833 [label="X[2] <= 0.215\ngini = 0.55\nsamples = 57\nvalue = [0, 1, 9, 36, 9, 2, 0]"] ;
825 -> 833 ;
834 [label="X[0] <= 5.4\ngini = 0.444\nsamples = 3\nvalue = [0, 0, 1, 0, 2, 0, 0]"] ;
833 -> 834 ;
835 [label="gini = 0.0\nsamples = 1\nvalue = [0, 0, 1, 0, 0, 0, 0]"] ;
834 -> 835 ;
836 [label="gini = 0.0\nsamples = 2\nvalue = [0, 0, 0, 0, 2, 0, 0]"] ;
834 -> 836 ;
837 [label="X[1] <= 0.185\ngini = 0.515\nsamples = 54\nvalue = [0, 1, 8, 36, 7, 2, 0]"] ;
833 -> 837 ;
838 [label="X[1] <= 0.165\ngini = 0.604\nsamples = 24\nvalue = [0, 1, 3, 13, 7, 0, 0]"] ;
837 -> 838 ;
839 [label="X[5] <= 33.5\ngini = 0.436\nsamples = 15\nvalue = [0, 1, 2, 11, 1, 0, 0]"] ;
838 -> 839 ;
840 [label="X[0] <= 5.55\ngini = 0.165\nsamples = 11\nvalue = [0, 0, 1, 10, 0, 0, 0]"] ;
839 -> 840 ;
841 [label="X[9] <= 0.4\ngini = 0.5\nsamples = 2\nvalue = [0, 0, 1, 1, 0, 0, 0]"] ;
840 -> 841 ;
842 [label="gini = 0.0\nsamples = 1\nvalue = [0, 0, 0, 1, 0, 0, 0]"] ;
841 -> 842 ;
843 [label="gini = 0.0\nsamples = 1\nvalue = [0, 0, 1, 0, 0, 0, 0]"] ;
841 -> 843 ;
844 [label="gini = 0.0\nsamples = 9\nvalue = [0, 0, 0, 9, 0, 0, 0]"] ;
840 -> 844 ;
845 [label="X[8] <= 3.205\ngini = 0.75\nsamples = 4\nvalue = [0, 1, 1, 1, 1, 0, 0]"] ;
839 -> 845 ;
846 [label="gini = 0.0\nsamples = 1\nvalue = [0, 0, 1, 0, 0, 0, 0]"] ;
845 -> 846 ;
847 [label="X[8] <= 3.24\ngini = 0.667\nsamples = 3\nvalue = [0, 1, 0, 1, 1, 0, 0]"] ;
845 -> 847 ;
848 [label="gini = 0.0\nsamples = 1\nvalue = [0, 0, 0, 1, 0, 0, 0]"] ;
847 -> 848 ;
849 [label="X[0] <= 7.95\ngini = 0.5\nsamples = 2\nvalue = [0, 1, 0, 0, 1, 0, 0]"] ;
847 -> 849 ;
850 [label="gini = 0.0\nsamples = 1\nvalue = [0, 1, 0, 0, 0, 0, 0]"] ;
849 -> 850 ;
851 [label="gini = 0.0\nsamples = 1\nvalue = [0, 0, 0, 0, 1, 0, 0]"] ;
849 -> 851 ;
852 [label="X[5] <= 42.5\ngini = 0.494\nsamples = 9\nvalue = [0, 0, 1, 2, 6, 0, 0]"] ;
838 -> 852 ;
853 [label="X[0] <= 6.95\ngini = 0.245\nsamples = 7\nvalue = [0, 0, 1, 0, 6, 0, 0]"] ;
852 -> 853 ;
854 [label="gini = 0.0\nsamples = 1\nvalue = [0, 0, 1, 0, 0, 0, 0]"] ;
853 -> 854 ;
855 [label="gini = 0.0\nsamples = 6\nvalue = [0, 0, 0, 0, 6, 0, 0]"] ;
853 -> 855 ;
856 [label="gini = 0.0\nsamples = 2\nvalue = [0, 0, 0, 2, 0, 0, 0]"] ;
852 -> 856 ;
857 [label="X[9] <= 0.395\ngini = 0.38\nsamples = 30\nvalue = [0, 0, 5, 23, 0, 2, 0]"] ;
837 -> 857 ;
858 [label="X[0] <= 6.85\ngini = 0.554\nsamples = 17\nvalue = [0, 0, 5, 10, 0, 2, 0]"] ;
857 -> 858 ;
859 [label="X[2] <= 0.31\ngini = 0.5\nsamples = 4\nvalue = [0, 0, 2, 0, 0, 2, 0]"] ;
858 -> 859 ;
860 [label="gini = 0.0\nsamples = 2\nvalue = [0, 0, 2, 0, 0, 0, 0]"] ;
859 -> 860 ;
861 [label="gini = 0.0\nsamples = 2\nvalue = [0, 0, 0, 0, 0, 2, 0]"] ;
859 -> 861 ;
862 [label="X[6] <= 102.0\ngini = 0.355\nsamples = 13\nvalue = [0, 0, 3, 10, 0, 0, 0]"] ;
858 -> 862 ;
863 [label="gini = 0.0\nsamples = 1\nvalue = [0, 0, 1, 0, 0, 0, 0]"] ;
862 -> 863 ;
864 [label="X[1] <= 0.225\ngini = 0.278\nsamples = 12\nvalue = [0, 0, 2, 10, 0, 0, 0]"] ;
862 -> 864 ;
865 [label="X[0] <= 7.15\ngini = 0.165\nsamples = 11\nvalue = [0, 0, 1, 10, 0, 0, 0]"] ;
864 -> 865 ;
866 [label="X[7] <= 0.994\ngini = 0.5\nsamples = 2\nvalue = [0, 0, 1, 1, 0, 0, 0]"] ;
865 -> 866 ;
867 [label="gini = 0.0\nsamples = 1\nvalue = [0, 0, 0, 1, 0, 0, 0]"] ;
866 -> 867 ;
868 [label="gini = 0.0\nsamples = 1\nvalue = [0, 0, 1, 0, 0, 0, 0]"] ;
866 -> 868 ;
869 [label="gini = 0.0\nsamples = 9\nvalue = [0, 0, 0, 9, 0, 0, 0]"] ;
865 -> 869 ;
870 [label="gini = 0.0\nsamples = 1\nvalue = [0, 0, 1, 0, 0, 0, 0]"] ;
864 -> 870 ;
871 [label="gini = 0.0\nsamples = 13\nvalue = [0, 0, 0, 13, 0, 0, 0]"] ;
857 -> 871 ;
872 [label="X[5] <= 32.0\ngini = 0.645\nsamples = 33\nvalue = [0, 0, 5, 8, 17, 3, 0]"] ;
822 -> 872 ;
873 [label="X[6] <= 96.5\ngini = 0.277\nsamples = 19\nvalue = [0, 0, 1, 2, 16, 0, 0]"] ;
872 -> 873 ;
874 [label="X[2] <= 0.27\ngini = 0.5\nsamples = 2\nvalue = [0, 0, 1, 1, 0, 0, 0]"] ;
873 -> 874 ;
875 [label="gini = 0.0\nsamples = 1\nvalue = [0, 0, 1, 0, 0, 0, 0]"] ;
874 -> 875 ;
876 [label="gini = 0.0\nsamples = 1\nvalue = [0, 0, 0, 1, 0, 0, 0]"] ;
874 -> 876 ;
877 [label="X[4] <= 0.027\ngini = 0.111\nsamples = 17\nvalue = [0, 0, 0, 1, 16, 0, 0]"] ;
873 -> 877 ;
878 [label="gini = 0.0\nsamples = 1\nvalue = [0, 0, 0, 1, 0, 0, 0]"] ;
877 -> 878 ;
879 [label="gini = 0.0\nsamples = 16\nvalue = [0, 0, 0, 0, 16, 0, 0]"] ;
877 -> 879 ;
880 [label="X[7] <= 0.998\ngini = 0.684\nsamples = 14\nvalue = [0, 0, 4, 6, 1, 3, 0]"] ;
872 -> 880 ;
881 [label="X[8] <= 3.155\ngini = 0.612\nsamples = 11\nvalue = [0, 0, 1, 6, 1, 3, 0]"] ;
880 -> 881 ;
882 [label="X[0] <= 5.95\ngini = 0.245\nsamples = 7\nvalue = [0, 0, 0, 6, 0, 1, 0]"] ;
881 -> 882 ;
883 [label="gini = 0.0\nsamples = 1\nvalue = [0, 0, 0, 0, 0, 1, 0]"] ;
882 -> 883 ;
884 [label="gini = 0.0\nsamples = 6\nvalue = [0, 0, 0, 6, 0, 0, 0]"] ;
882 -> 884 ;
885 [label="X[9] <= 0.39\ngini = 0.625\nsamples = 4\nvalue = [0, 0, 1, 0, 1, 2, 0]"] ;
881 -> 885 ;
886 [label="gini = 0.0\nsamples = 2\nvalue = [0, 0, 0, 0, 0, 2, 0]"] ;
885 -> 886 ;
887 [label="X[7] <= 0.996\ngini = 0.5\nsamples = 2\nvalue = [0, 0, 1, 0, 1, 0, 0]"] ;
885 -> 887 ;
888 [label="gini = 0.0\nsamples = 1\nvalue = [0, 0, 1, 0, 0, 0, 0]"] ;
887 -> 888 ;
889 [label="gini = 0.0\nsamples = 1\nvalue = [0, 0, 0, 0, 1, 0, 0]"] ;
887 -> 889 ;
890 [label="gini = 0.0\nsamples = 3\nvalue = [0, 0, 3, 0, 0, 0, 0]"] ;
880 -> 890 ;
891 [label="X[8] <= 3.105\ngini = 0.611\nsamples = 222\nvalue = [1, 3, 73, 114, 29, 2, 0]"] ;
821 -> 891 ;
892 [label="X[3] <= 11.05\ngini = 0.561\nsamples = 43\nvalue = [0, 1, 24, 15, 3, 0, 0]"] ;
891 -> 892 ;
893 [label="X[5] <= 32.0\ngini = 0.523\nsamples = 39\nvalue = [0, 1, 24, 12, 2, 0, 0]"] ;
892 -> 893 ;
894 [label="X[8] <= 3.035\ngini = 0.547\nsamples = 17\nvalue = [0, 1, 7, 9, 0, 0, 0]"] ;
893 -> 894 ;
895 [label="X[2] <= 0.41\ngini = 0.219\nsamples = 8\nvalue = [0, 0, 1, 7, 0, 0, 0]"] ;
894 -> 895 ;
896 [label="gini = 0.0\nsamples = 7\nvalue = [0, 0, 0, 7, 0, 0, 0]"] ;
895 -> 896 ;
897 [label="gini = 0.0\nsamples = 1\nvalue = [0, 0, 1, 0, 0, 0, 0]"] ;
895 -> 897 ;
898 [label="X[8] <= 3.05\ngini = 0.494\nsamples = 9\nvalue = [0, 1, 6, 2, 0, 0, 0]"] ;
894 -> 898 ;
899 [label="gini = 0.0\nsamples = 1\nvalue = [0, 1, 0, 0, 0, 0, 0]"] ;
898 -> 899 ;
900 [label="X[7] <= 0.993\ngini = 0.375\nsamples = 8\nvalue = [0, 0, 6, 2, 0, 0, 0]"] ;
898 -> 900 ;
901 [label="gini = 0.0\nsamples = 1\nvalue = [0, 0, 0, 1, 0, 0, 0]"] ;
900 -> 901 ;
902 [label="X[9] <= 0.465\ngini = 0.245\nsamples = 7\nvalue = [0, 0, 6, 1, 0, 0, 0]"] ;
900 -> 902 ;
903 [label="gini = 0.0\nsamples = 5\nvalue = [0, 0, 5, 0, 0, 0, 0]"] ;
902 -> 903 ;
904 [label="X[4] <= 0.046\ngini = 0.5\nsamples = 2\nvalue = [0, 0, 1, 1, 0, 0, 0]"] ;
902 -> 904 ;
905 [label="gini = 0.0\nsamples = 1\nvalue = [0, 0, 1, 0, 0, 0, 0]"] ;
904 -> 905 ;
906 [label="gini = 0.0\nsamples = 1\nvalue = [0, 0, 0, 1, 0, 0, 0]"] ;
904 -> 906 ;
907 [label="X[7] <= 0.994\ngini = 0.376\nsamples = 22\nvalue = [0, 0, 17, 3, 2, 0, 0]"] ;
893 -> 907 ;
908 [label="X[3] <= 5.75\ngini = 0.569\nsamples = 12\nvalue = [0, 0, 7, 3, 2, 0, 0]"] ;
907 -> 908 ;
909 [label="X[9] <= 0.385\ngini = 0.42\nsamples = 10\nvalue = [0, 0, 7, 3, 0, 0, 0]"] ;
908 -> 909 ;
910 [label="X[5] <= 48.5\ngini = 0.5\nsamples = 6\nvalue = [0, 0, 3, 3, 0, 0, 0]"] ;
909 -> 910 ;
911 [label="X[6] <= 123.0\ngini = 0.375\nsamples = 4\nvalue = [0, 0, 1, 3, 0, 0, 0]"] ;
910 -> 911 ;
912 [label="gini = 0.0\nsamples = 1\nvalue = [0, 0, 1, 0, 0, 0, 0]"] ;
911 -> 912 ;
913 [label="gini = 0.0\nsamples = 3\nvalue = [0, 0, 0, 3, 0, 0, 0]"] ;
911 -> 913 ;
914 [label="gini = 0.0\nsamples = 2\nvalue = [0, 0, 2, 0, 0, 0, 0]"] ;
910 -> 914 ;
915 [label="gini = 0.0\nsamples = 4\nvalue = [0, 0, 4, 0, 0, 0, 0]"] ;
909 -> 915 ;
916 [label="gini = 0.0\nsamples = 2\nvalue = [0, 0, 0, 0, 2, 0, 0]"] ;
908 -> 916 ;
917 [label="gini = 0.0\nsamples = 10\nvalue = [0, 0, 10, 0, 0, 0, 0]"] ;
907 -> 917 ;
918 [label="X[4] <= 0.052\ngini = 0.375\nsamples = 4\nvalue = [0, 0, 0, 3, 1, 0, 0]"] ;
892 -> 918 ;
919 [label="gini = 0.0\nsamples = 1\nvalue = [0, 0, 0, 0, 1, 0, 0]"] ;
918 -> 919 ;
920 [label="gini = 0.0\nsamples = 3\nvalue = [0, 0, 0, 3, 0, 0, 0]"] ;
918 -> 920 ;
921 [label="X[8] <= 3.205\ngini = 0.598\nsamples = 179\nvalue = [1, 2, 49, 99, 26, 2, 0]"] ;
891 -> 921 ;
922 [label="X[2] <= 0.235\ngini = 0.529\nsamples = 72\nvalue = [1, 1, 9, 47, 12, 2, 0]"] ;
921 -> 922 ;
923 [label="gini = 0.0\nsamples = 3\nvalue = [0, 0, 3, 0, 0, 0, 0]"] ;
922 -> 923 ;
924 [label="X[2] <= 0.35\ngini = 0.497\nsamples = 69\nvalue = [1, 1, 6, 47, 12, 2, 0]"] ;
922 -> 924 ;
925 [label="X[9] <= 0.425\ngini = 0.322\nsamples = 44\nvalue = [1, 1, 2, 36, 3, 1, 0]"] ;
924 -> 925 ;
926 [label="X[4] <= 0.072\ngini = 0.164\nsamples = 34\nvalue = [0, 0, 2, 31, 0, 1, 0]"] ;
925 -> 926 ;
927 [label="X[6] <= 89.0\ngini = 0.061\nsamples = 32\nvalue = [0, 0, 1, 31, 0, 0, 0]"] ;
926 -> 927 ;
928 [label="X[6] <= 81.5\ngini = 0.375\nsamples = 4\nvalue = [0, 0, 1, 3, 0, 0, 0]"] ;
927 -> 928 ;
929 [label="gini = 0.0\nsamples = 3\nvalue = [0, 0, 0, 3, 0, 0, 0]"] ;
928 -> 929 ;
930 [label="gini = 0.0\nsamples = 1\nvalue = [0, 0, 1, 0, 0, 0, 0]"] ;
928 -> 930 ;
931 [label="gini = 0.0\nsamples = 28\nvalue = [0, 0, 0, 28, 0, 0, 0]"] ;
927 -> 931 ;
932 [label="X[2] <= 0.25\ngini = 0.5\nsamples = 2\nvalue = [0, 0, 1, 0, 0, 1, 0]"] ;
926 -> 932 ;
933 [label="gini = 0.0\nsamples = 1\nvalue = [0, 0, 0, 0, 0, 1, 0]"] ;
932 -> 933 ;
934 [label="gini = 0.0\nsamples = 1\nvalue = [0, 0, 1, 0, 0, 0, 0]"] ;
932 -> 934 ;
935 [label="X[6] <= 126.0\ngini = 0.64\nsamples = 10\nvalue = [1, 1, 0, 5, 3, 0, 0]"] ;
925 -> 935 ;
936 [label="gini = 0.0\nsamples = 3\nvalue = [0, 0, 0, 0, 3, 0, 0]"] ;
935 -> 936 ;
937 [label="X[2] <= 0.325\ngini = 0.449\nsamples = 7\nvalue = [1, 1, 0, 5, 0, 0, 0]"] ;
935 -> 937 ;
938 [label="gini = 0.0\nsamples = 5\nvalue = [0, 0, 0, 5, 0, 0, 0]"] ;
937 -> 938 ;
939 [label="X[0] <= 7.7\ngini = 0.5\nsamples = 2\nvalue = [1, 1, 0, 0, 0, 0, 0]"] ;
937 -> 939 ;
940 [label="gini = 0.0\nsamples = 1\nvalue = [1, 0, 0, 0, 0, 0, 0]"] ;
939 -> 940 ;
941 [label="gini = 0.0\nsamples = 1\nvalue = [0, 1, 0, 0, 0, 0, 0]"] ;
939 -> 941 ;
942 [label="X[4] <= 0.05\ngini = 0.65\nsamples = 25\nvalue = [0, 0, 4, 11, 9, 1, 0]"] ;
924 -> 942 ;
943 [label="X[0] <= 7.05\ngini = 0.58\nsamples = 10\nvalue = [0, 0, 2, 1, 6, 1, 0]"] ;
942 -> 943 ;
944 [label="X[0] <= 6.65\ngini = 0.5\nsamples = 2\nvalue = [0, 0, 1, 0, 0, 1, 0]"] ;
943 -> 944 ;
945 [label="gini = 0.0\nsamples = 1\nvalue = [0, 0, 1, 0, 0, 0, 0]"] ;
944 -> 945 ;
946 [label="gini = 0.0\nsamples = 1\nvalue = [0, 0, 0, 0, 0, 1, 0]"] ;
944 -> 946 ;
947 [label="X[1] <= 0.155\ngini = 0.406\nsamples = 8\nvalue = [0, 0, 1, 1, 6, 0, 0]"] ;
943 -> 947 ;
948 [label="gini = 0.0\nsamples = 1\nvalue = [0, 0, 1, 0, 0, 0, 0]"] ;
947 -> 948 ;
949 [label="X[7] <= 0.996\ngini = 0.245\nsamples = 7\nvalue = [0, 0, 0, 1, 6, 0, 0]"] ;
947 -> 949 ;
950 [label="gini = 0.0\nsamples = 6\nvalue = [0, 0, 0, 0, 6, 0, 0]"] ;
949 -> 950 ;
951 [label="gini = 0.0\nsamples = 1\nvalue = [0, 0, 0, 1, 0, 0, 0]"] ;
949 -> 951 ;
952 [label="X[5] <= 38.5\ngini = 0.498\nsamples = 15\nvalue = [0, 0, 2, 10, 3, 0, 0]"] ;
942 -> 952 ;
953 [label="X[6] <= 126.0\ngini = 0.198\nsamples = 9\nvalue = [0, 0, 1, 8, 0, 0, 0]"] ;
952 -> 953 ;
954 [label="gini = 0.0\nsamples = 6\nvalue = [0, 0, 0, 6, 0, 0, 0]"] ;
953 -> 954 ;
955 [label="X[5] <= 25.5\ngini = 0.444\nsamples = 3\nvalue = [0, 0, 1, 2, 0, 0, 0]"] ;
953 -> 955 ;
956 [label="gini = 0.0\nsamples = 1\nvalue = [0, 0, 1, 0, 0, 0, 0]"] ;
955 -> 956 ;
957 [label="gini = 0.0\nsamples = 2\nvalue = [0, 0, 0, 2, 0, 0, 0]"] ;
955 -> 957 ;
958 [label="X[2] <= 0.395\ngini = 0.611\nsamples = 6\nvalue = [0, 0, 1, 2, 3, 0, 0]"] ;
952 -> 958 ;
959 [label="gini = 0.0\nsamples = 2\nvalue = [0, 0, 0, 2, 0, 0, 0]"] ;
958 -> 959 ;
960 [label="X[8] <= 3.185\ngini = 0.375\nsamples = 4\nvalue = [0, 0, 1, 0, 3, 0, 0]"] ;
958 -> 960 ;
961 [label="gini = 0.0\nsamples = 3\nvalue = [0, 0, 0, 0, 3, 0, 0]"] ;
960 -> 961 ;
962 [label="gini = 0.0\nsamples = 1\nvalue = [0, 0, 1, 0, 0, 0, 0]"] ;
960 -> 962 ;
963 [label="X[3] <= 9.05\ngini = 0.607\nsamples = 107\nvalue = [0, 1, 40, 52, 14, 0, 0]"] ;
921 -> 963 ;
964 [label="X[8] <= 3.58\ngini = 0.598\nsamples = 92\nvalue = [0, 0, 30, 48, 14, 0, 0]"] ;
963 -> 964 ;
965 [label="X[8] <= 3.375\ngini = 0.59\nsamples = 86\nvalue = [0, 0, 25, 47, 14, 0, 0]"] ;
964 -> 965 ;
966 [label="X[3] <= 5.75\ngini = 0.589\nsamples = 60\nvalue = [0, 0, 23, 30, 7, 0, 0]"] ;
965 -> 966 ;
967 [label="X[9] <= 0.425\ngini = 0.615\nsamples = 38\nvalue = [0, 0, 18, 14, 6, 0, 0]"] ;
966 -> 967 ;
968 [label="X[3] <= 1.3\ngini = 0.58\nsamples = 21\nvalue = [0, 0, 5, 12, 4, 0, 0]"] ;
967 -> 968 ;
969 [label="gini = 0.0\nsamples = 2\nvalue = [0, 0, 0, 0, 2, 0, 0]"] ;
968 -> 969 ;
970 [label="X[3] <= 5.05\ngini = 0.521\nsamples = 19\nvalue = [0, 0, 5, 12, 2, 0, 0]"] ;
968 -> 970 ;
971 [label="X[6] <= 165.0\ngini = 0.427\nsamples = 15\nvalue = [0, 0, 2, 11, 2, 0, 0]"] ;
970 -> 971 ;
972 [label="X[4] <= 0.041\ngini = 0.272\nsamples = 13\nvalue = [0, 0, 1, 11, 1, 0, 0]"] ;
971 -> 972 ;
973 [label="gini = 0.0\nsamples = 1\nvalue = [0, 0, 0, 0, 1, 0, 0]"] ;
972 -> 973 ;
974 [label="X[6] <= 109.5\ngini = 0.153\nsamples = 12\nvalue = [0, 0, 1, 11, 0, 0, 0]"] ;
972 -> 974 ;
975 [label="X[8] <= 3.27\ngini = 0.5\nsamples = 2\nvalue = [0, 0, 1, 1, 0, 0, 0]"] ;
974 -> 975 ;
976 [label="gini = 0.0\nsamples = 1\nvalue = [0, 0, 1, 0, 0, 0, 0]"] ;
975 -> 976 ;
977 [label="gini = 0.0\nsamples = 1\nvalue = [0, 0, 0, 1, 0, 0, 0]"] ;
975 -> 977 ;
978 [label="gini = 0.0\nsamples = 10\nvalue = [0, 0, 0, 10, 0, 0, 0]"] ;
974 -> 978 ;
979 [label="X[3] <= 4.05\ngini = 0.5\nsamples = 2\nvalue = [0, 0, 1, 0, 1, 0, 0]"] ;
971 -> 979 ;
980 [label="gini = 0.0\nsamples = 1\nvalue = [0, 0, 1, 0, 0, 0, 0]"] ;
979 -> 980 ;
981 [label="gini = 0.0\nsamples = 1\nvalue = [0, 0, 0, 0, 1, 0, 0]"] ;
979 -> 981 ;
982 [label="X[2] <= 0.345\ngini = 0.375\nsamples = 4\nvalue = [0, 0, 3, 1, 0, 0, 0]"] ;
970 -> 982 ;
983 [label="gini = 0.0\nsamples = 3\nvalue = [0, 0, 3, 0, 0, 0, 0]"] ;
982 -> 983 ;
984 [label="gini = 0.0\nsamples = 1\nvalue = [0, 0, 0, 1, 0, 0, 0]"] ;
982 -> 984 ;
985 [label="X[1] <= 0.195\ngini = 0.388\nsamples = 17\nvalue = [0, 0, 13, 2, 2, 0, 0]"] ;
967 -> 985 ;
986 [label="X[1] <= 0.13\ngini = 0.142\nsamples = 13\nvalue = [0, 0, 12, 0, 1, 0, 0]"] ;
985 -> 986 ;
987 [label="X[3] <= 3.25\ngini = 0.5\nsamples = 2\nvalue = [0, 0, 1, 0, 1, 0, 0]"] ;
986 -> 987 ;
988 [label="gini = 0.0\nsamples = 1\nvalue = [0, 0, 1, 0, 0, 0, 0]"] ;
987 -> 988 ;
989 [label="gini = 0.0\nsamples = 1\nvalue = [0, 0, 0, 0, 1, 0, 0]"] ;
987 -> 989 ;
990 [label="gini = 0.0\nsamples = 11\nvalue = [0, 0, 11, 0, 0, 0, 0]"] ;
986 -> 990 ;
991 [label="X[6] <= 99.0\ngini = 0.625\nsamples = 4\nvalue = [0, 0, 1, 2, 1, 0, 0]"] ;
985 -> 991 ;
992 [label="X[6] <= 92.5\ngini = 0.5\nsamples = 2\nvalue = [0, 0, 1, 0, 1, 0, 0]"] ;
991 -> 992 ;
993 [label="gini = 0.0\nsamples = 1\nvalue = [0, 0, 1, 0, 0, 0, 0]"] ;
992 -> 993 ;
994 [label="gini = 0.0\nsamples = 1\nvalue = [0, 0, 0, 0, 1, 0, 0]"] ;
992 -> 994 ;
995 [label="gini = 0.0\nsamples = 2\nvalue = [0, 0, 0, 2, 0, 0, 0]"] ;
991 -> 995 ;
996 [label="X[9] <= 0.35\ngini = 0.417\nsamples = 22\nvalue = [0, 0, 5, 16, 1, 0, 0]"] ;
966 -> 996 ;
997 [label="X[3] <= 6.625\ngini = 0.32\nsamples = 5\nvalue = [0, 0, 4, 1, 0, 0, 0]"] ;
996 -> 997 ;
998 [label="gini = 0.0\nsamples = 1\nvalue = [0, 0, 0, 1, 0, 0, 0]"] ;
997 -> 998 ;
999 [label="gini = 0.0\nsamples = 4\nvalue = [0, 0, 4, 0, 0, 0, 0]"] ;
997 -> 999 ;
1000 [label="X[5] <= 18.5\ngini = 0.215\nsamples = 17\nvalue = [0, 0, 1, 15, 1, 0, 0]"] ;
996 -> 1000 ;
1001 [label="gini = 0.0\nsamples = 1\nvalue = [0, 0, 0, 0, 1, 0, 0]"] ;
1000 -> 1001 ;
1002 [label="X[2] <= 0.43\ngini = 0.117\nsamples = 16\nvalue = [0, 0, 1, 15, 0, 0, 0]"] ;
1000 -> 1002 ;
1003 [label="gini = 0.0\nsamples = 13\nvalue = [0, 0, 0, 13, 0, 0, 0]"] ;
1002 -> 1003 ;
1004 [label="X[6] <= 171.5\ngini = 0.444\nsamples = 3\nvalue = [0, 0, 1, 2, 0, 0, 0]"] ;
1002 -> 1004 ;
1005 [label="gini = 0.0\nsamples = 2\nvalue = [0, 0, 0, 2, 0, 0, 0]"] ;
1004 -> 1005 ;
1006 [label="gini = 0.0\nsamples = 1\nvalue = [0, 0, 1, 0, 0, 0, 0]"] ;
1004 -> 1006 ;
1007 [label="X[7] <= 0.995\ngini = 0.494\nsamples = 26\nvalue = [0, 0, 2, 17, 7, 0, 0]"] ;
965 -> 1007 ;
1008 [label="X[6] <= 107.0\ngini = 0.349\nsamples = 19\nvalue = [0, 0, 1, 15, 3, 0, 0]"] ;
1007 -> 1008 ;
1009 [label="X[1] <= 0.205\ngini = 0.444\nsamples = 3\nvalue = [0, 0, 0, 1, 2, 0, 0]"] ;
1008 -> 1009 ;
1010 [label="gini = 0.0\nsamples = 2\nvalue = [0, 0, 0, 0, 2, 0, 0]"] ;
1009 -> 1010 ;
1011 [label="gini = 0.0\nsamples = 1\nvalue = [0, 0, 0, 1, 0, 0, 0]"] ;
1009 -> 1011 ;
1012 [label="X[9] <= 0.455\ngini = 0.227\nsamples = 16\nvalue = [0, 0, 1, 14, 1, 0, 0]"] ;
1008 -> 1012 ;
1013 [label="gini = 0.0\nsamples = 11\nvalue = [0, 0, 0, 11, 0, 0, 0]"] ;
1012 -> 1013 ;
1014 [label="X[1] <= 0.135\ngini = 0.56\nsamples = 5\nvalue = [0, 0, 1, 3, 1, 0, 0]"] ;
1012 -> 1014 ;
1015 [label="gini = 0.0\nsamples = 1\nvalue = [0, 0, 0, 0, 1, 0, 0]"] ;
1014 -> 1015 ;
1016 [label="X[6] <= 157.0\ngini = 0.375\nsamples = 4\nvalue = [0, 0, 1, 3, 0, 0, 0]"] ;
1014 -> 1016 ;
1017 [label="gini = 0.0\nsamples = 3\nvalue = [0, 0, 0, 3, 0, 0, 0]"] ;
1016 -> 1017 ;
1018 [label="gini = 0.0\nsamples = 1\nvalue = [0, 0, 1, 0, 0, 0, 0]"] ;
1016 -> 1018 ;
1019 [label="X[6] <= 111.5\ngini = 0.571\nsamples = 7\nvalue = [0, 0, 1, 2, 4, 0, 0]"] ;
1007 -> 1019 ;
1020 [label="X[9] <= 0.42\ngini = 0.444\nsamples = 3\nvalue = [0, 0, 1, 2, 0, 0, 0]"] ;
1019 -> 1020 ;
1021 [label="gini = 0.0\nsamples = 2\nvalue = [0, 0, 0, 2, 0, 0, 0]"] ;
1020 -> 1021 ;
1022 [label="gini = 0.0\nsamples = 1\nvalue = [0, 0, 1, 0, 0, 0, 0]"] ;
1020 -> 1022 ;
1023 [label="gini = 0.0\nsamples = 4\nvalue = [0, 0, 0, 0, 4, 0, 0]"] ;
1019 -> 1023 ;
1024 [label="X[1] <= 0.155\ngini = 0.278\nsamples = 6\nvalue = [0, 0, 5, 1, 0, 0, 0]"] ;
964 -> 1024 ;
1025 [label="gini = 0.0\nsamples = 1\nvalue = [0, 0, 0, 1, 0, 0, 0]"] ;
1024 -> 1025 ;
1026 [label="gini = 0.0\nsamples = 5\nvalue = [0, 0, 5, 0, 0, 0, 0]"] ;
1024 -> 1026 ;
1027 [label="X[6] <= 171.0\ngini = 0.48\nsamples = 15\nvalue = [0, 1, 10, 4, 0, 0, 0]"] ;
963 -> 1027 ;
1028 [label="X[5] <= 24.0\ngini = 0.379\nsamples = 13\nvalue = [0, 1, 10, 2, 0, 0, 0]"] ;
1027 -> 1028 ;
1029 [label="gini = 0.0\nsamples = 1\nvalue = [0, 1, 0, 0, 0, 0, 0]"] ;
1028 -> 1029 ;
1030 [label="X[6] <= 124.5\ngini = 0.278\nsamples = 12\nvalue = [0, 0, 10, 2, 0, 0, 0]"] ;
1028 -> 1030 ;
1031 [label="gini = 0.0\nsamples = 1\nvalue = [0, 0, 0, 1, 0, 0, 0]"] ;
1030 -> 1031 ;
1032 [label="X[6] <= 164.5\ngini = 0.165\nsamples = 11\nvalue = [0, 0, 10, 1, 0, 0, 0]"] ;
1030 -> 1032 ;
1033 [label="gini = 0.0\nsamples = 9\nvalue = [0, 0, 9, 0, 0, 0, 0]"] ;
1032 -> 1033 ;
1034 [label="X[1] <= 0.205\ngini = 0.5\nsamples = 2\nvalue = [0, 0, 1, 1, 0, 0, 0]"] ;
1032 -> 1034 ;
1035 [label="gini = 0.0\nsamples = 1\nvalue = [0, 0, 0, 1, 0, 0, 0]"] ;
1034 -> 1035 ;
1036 [label="gini = 0.0\nsamples = 1\nvalue = [0, 0, 1, 0, 0, 0, 0]"] ;
1034 -> 1036 ;
1037 [label="gini = 0.0\nsamples = 2\nvalue = [0, 0, 0, 2, 0, 0, 0]"] ;
1027 -> 1037 ;
1038 [label="X[3] <= 17.825\ngini = 0.468\nsamples = 98\nvalue = [0, 1, 21, 68, 6, 2, 0]"] ;
820 -> 1038 ;
1039 [label="X[9] <= 0.415\ngini = 0.435\nsamples = 92\nvalue = [0, 1, 16, 67, 6, 2, 0]"] ;
1038 -> 1039 ;
1040 [label="X[4] <= 0.043\ngini = 0.609\nsamples = 41\nvalue = [0, 0, 12, 22, 5, 2, 0]"] ;
1039 -> 1040 ;
1041 [label="X[6] <= 131.25\ngini = 0.37\nsamples = 9\nvalue = [0, 0, 7, 0, 1, 1, 0]"] ;
1040 -> 1041 ;
1042 [label="X[1] <= 0.185\ngini = 0.5\nsamples = 2\nvalue = [0, 0, 0, 0, 1, 1, 0]"] ;
1041 -> 1042 ;
1043 [label="gini = 0.0\nsamples = 1\nvalue = [0, 0, 0, 0, 0, 1, 0]"] ;
1042 -> 1043 ;
1044 [label="gini = 0.0\nsamples = 1\nvalue = [0, 0, 0, 0, 1, 0, 0]"] ;
1042 -> 1044 ;
1045 [label="gini = 0.0\nsamples = 7\nvalue = [0, 0, 7, 0, 0, 0, 0]"] ;
1041 -> 1045 ;
1046 [label="X[6] <= 176.5\ngini = 0.486\nsamples = 32\nvalue = [0, 0, 5, 22, 4, 1, 0]"] ;
1040 -> 1046 ;
1047 [label="X[6] <= 115.25\ngini = 0.433\nsamples = 30\nvalue = [0, 0, 3, 22, 4, 1, 0]"] ;
1046 -> 1047 ;
1048 [label="gini = 0.0\nsamples = 11\nvalue = [0, 0, 0, 11, 0, 0, 0]"] ;
1047 -> 1048 ;
1049 [label="X[6] <= 134.5\ngini = 0.593\nsamples = 19\nvalue = [0, 0, 3, 11, 4, 1, 0]"] ;
1047 -> 1049 ;
1050 [label="X[7] <= 0.996\ngini = 0.32\nsamples = 5\nvalue = [0, 0, 0, 0, 4, 1, 0]"] ;
1049 -> 1050 ;
1051 [label="gini = 0.0\nsamples = 1\nvalue = [0, 0, 0, 0, 0, 1, 0]"] ;
1050 -> 1051 ;
1052 [label="gini = 0.0\nsamples = 4\nvalue = [0, 0, 0, 0, 4, 0, 0]"] ;
1050 -> 1052 ;
1053 [label="X[0] <= 6.2\ngini = 0.337\nsamples = 14\nvalue = [0, 0, 3, 11, 0, 0, 0]"] ;
1049 -> 1053 ;
1054 [label="X[8] <= 3.29\ngini = 0.444\nsamples = 3\nvalue = [0, 0, 2, 1, 0, 0, 0]"] ;
1053 -> 1054 ;
1055 [label="gini = 0.0\nsamples = 2\nvalue = [0, 0, 2, 0, 0, 0, 0]"] ;
1054 -> 1055 ;
1056 [label="gini = 0.0\nsamples = 1\nvalue = [0, 0, 0, 1, 0, 0, 0]"] ;
1054 -> 1056 ;
1057 [label="X[2] <= 0.255\ngini = 0.165\nsamples = 11\nvalue = [0, 0, 1, 10, 0, 0, 0]"] ;
1053 -> 1057 ;
1058 [label="gini = 0.0\nsamples = 1\nvalue = [0, 0, 1, 0, 0, 0, 0]"] ;
1057 -> 1058 ;
1059 [label="gini = 0.0\nsamples = 10\nvalue = [0, 0, 0, 10, 0, 0, 0]"] ;
1057 -> 1059 ;
1060 [label="gini = 0.0\nsamples = 2\nvalue = [0, 0, 2, 0, 0, 0, 0]"] ;
1046 -> 1060 ;
1061 [label="X[4] <= 0.062\ngini = 0.215\nsamples = 51\nvalue = [0, 1, 4, 45, 1, 0, 0]"] ;
1039 -> 1061 ;
1062 [label="X[0] <= 8.35\ngini = 0.152\nsamples = 49\nvalue = [0, 0, 3, 45, 1, 0, 0]"] ;
1061 -> 1062 ;
1063 [label="X[5] <= 57.0\ngini = 0.117\nsamples = 48\nvalue = [0, 0, 3, 45, 0, 0, 0]"] ;
1062 -> 1063 ;
1064 [label="X[8] <= 3.365\ngini = 0.048\nsamples = 41\nvalue = [0, 0, 1, 40, 0, 0, 0]"] ;
1063 -> 1064 ;
1065 [label="gini = 0.0\nsamples = 38\nvalue = [0, 0, 0, 38, 0, 0, 0]"] ;
1064 -> 1065 ;
1066 [label="X[2] <= 0.31\ngini = 0.444\nsamples = 3\nvalue = [0, 0, 1, 2, 0, 0, 0]"] ;
1064 -> 1066 ;
1067 [label="gini = 0.0\nsamples = 1\nvalue = [0, 0, 1, 0, 0, 0, 0]"] ;
1066 -> 1067 ;
1068 [label="gini = 0.0\nsamples = 2\nvalue = [0, 0, 0, 2, 0, 0, 0]"] ;
1066 -> 1068 ;
1069 [label="X[8] <= 3.21\ngini = 0.408\nsamples = 7\nvalue = [0, 0, 2, 5, 0, 0, 0]"] ;
1063 -> 1069 ;
1070 [label="gini = 0.0\nsamples = 5\nvalue = [0, 0, 0, 5, 0, 0, 0]"] ;
1069 -> 1070 ;
1071 [label="gini = 0.0\nsamples = 2\nvalue = [0, 0, 2, 0, 0, 0, 0]"] ;
1069 -> 1071 ;
1072 [label="gini = 0.0\nsamples = 1\nvalue = [0, 0, 0, 0, 1, 0, 0]"] ;
1062 -> 1072 ;
1073 [label="X[5] <= 47.5\ngini = 0.5\nsamples = 2\nvalue = [0, 1, 1, 0, 0, 0, 0]"] ;
1061 -> 1073 ;
1074 [label="gini = 0.0\nsamples = 1\nvalue = [0, 1, 0, 0, 0, 0, 0]"] ;
1073 -> 1074 ;
1075 [label="gini = 0.0\nsamples = 1\nvalue = [0, 0, 1, 0, 0, 0, 0]"] ;
1073 -> 1075 ;
